799 29
1037 0.003468 -0.002369 -0.005774 -0.005206 -0.009587 0.010510 -0.013454 0.017190 -0.016138 0.002299 0.006574 0.011147 0.013296 -0.005923 -0.001793 -0.006293 -0.001450 -0.005360 -0.010275 -0.003500 -0.007646 0.003339 0.010856 0.016927 -0.014684 0.001224 0.010651 -0.004335 -0.001787
1105 0.003827 0.013047 0.006906 0.014513 -0.005807 0.014036 0.017207 -0.011581 -0.012539 0.002418 -0.008569 -0.006312 0.015301 0.010294 -0.016226 -0.004565 -0.007942 -0.004909 -0.010807 0.006733 -0.006371 0.007674 -0.001669 0.012157 0.010833 0.000297 0.014847 -0.010244 -0.009554
1007 0.009891 0.008953 0.013552 0.009580 -0.005409 0.013283 0.013509 -0.008749 0.008223 0.009386 0.010406 0.002664 -0.001766 -0.009169 0.002136 0.016470 0.003144 -0.006346 -0.012241 0.003724 -0.013636 0.011583 -0.011662 -0.008884 -0.009010 -0.000295 0.006284 0.003955 -0.015346
1034 0.004980 0.006029 -0.009218 -0.001990 0.013339 -0.007022 0.002510 -0.008837 0.006967 0.010765 0.010877 -0.006141 -0.012309 -0.016950 -0.008508 -0.008939 -0.004429 0.006519 0.015666 -0.014870 -0.011026 0.009314 -0.015404 -0.010615 -0.001218 0.003200 -0.011346 -0.003531 -0.004961
1246 -0.005174 0.005180 -0.006344 -0.013378 -0.002720 0.004057 -0.010565 -0.005302 -0.005280 -0.000386 -0.004969 0.016465 0.000351 -0.006644 0.005104 0.002555 0.007245 -0.004792 0.005482 0.011670 -0.001865 0.008482 -0.010399 0.014172 0.016258 -0.008176 -0.003340 0.017083 0.009676
1049 0.014962 -0.015026 -0.010607 -0.007951 -0.011895 0.012744 -0.000350 0.005410 -0.012280 0.010289 0.000988 0.013910 -0.014398 -0.010220 0.008629 -0.010009 -0.017051 0.010961 -0.004411 -0.009098 0.015543 0.008773 -0.013112 -0.012752 0.008137 -0.007543 0.000526 0.002570 -0.014650
1016 -0.008129 0.003759 -0.013821 -0.012739 0.004212 -0.008666 0.009232 -0.009808 -0.004143 0.015925 0.012082 0.000732 -0.006443 0.003505 -0.011539 -0.003803 0.014953 -0.010336 -0.001652 0.013412 0.005532 0.013966 -0.000649 0.005128 0.011275 -0.015371 0.012721 0.007126 -0.011970
1138 -0.003799 -0.007040 0.013796 0.012719 -0.011647 -0.011729 -0.008665 0.012067 0.001461 0.001451 -0.011779 -0.000178 -0.002309 0.008760 0.006875 0.013376 -0.009786 -0.010797 0.009351 0.002960 0.013463 0.009636 0.013242 -0.010871 0.014721 0.016687 -0.003391 -0.010270 0.012109
1283 0.010977 0.010707 -0.008823 0.011561 -0.010461 -0.010655 -0.003026 -0.006409 -0.012525 -0.013374 -0.014591 0.015696 0.014697 0.017214 -0.003442 0.000793 0.008787 -0.004962 0.010587 0.015481 0.004598 0.011135 -0.000114 -0.006671 -0.012894 -0.007221 -0.014302 -0.005554 0.003304
1201 -0.007804 0.011526 -0.015962 0.006130 0.008890 -0.013869 -0.001218 0.006089 -0.013844 -0.006752 0.008289 -0.013206 -0.016663 0.016824 -0.002387 0.016336 -0.009192 0.008430 0.003969 0.013664 0.013671 -0.005874 -0.008275 0.005572 0.008695 0.005546 0.008992 -0.013940 0.016469
1181 0.000124 0.009644 -0.013812 -0.006636 0.006942 -0.003545 -0.009813 -0.010634 -0.012621 0.010997 0.004906 -0.005753 -0.006448 -0.005939 0.005278 0.016769 0.013316 0.003463 -0.015040 -0.005344 -0.004897 -0.016110 0.011897 0.003692 0.005464 0.010721 -0.008803 0.006625 0.006959
1023 -0.010680 -0.003186 0.009256 0.015071 -0.006552 0.000432 0.001478 0.009827 -0.001362 -0.015300 -0.015991 -0.011001 -0.004896 -0.013469 -0.009930 -0.005638 -0.016056 -0.004341 -0.001709 -0.009151 0.012465 0.003884 0.007274 0.001999 -0.009112 0.016372 -0.005045 0.001095 -0.007998
1147 0.014594 0.008644 -0.016293 -0.000615 -0.003619 -0.010379 -0.016536 0.003423 -0.001045 -0.003240 -0.012921 0.005947 -0.002065 0.015096 0.000272 -0.000353 0.015622 -0.012730 -0.012095 0.002335 -0.005613 -0.011553 -0.003091 0.008125 0.013826 -0.000350 -0.001418 0.003550 0.007483
1084 -0.000167 0.015004 -0.000289 0.008218 0.006746 -0.015228 0.007524 0.016357 0.014898 -0.013752 -0.005844 -0.016834 -0.015184 0.007675 -0.000423 0.005188 -0.008978 0.012738 0.008730 0.013627 0.003740 -0.001843 -0.002744 -0.012862 0.011646 -0.016955 0.010921 -0.007768 -0.007435
1099 0.009997 0.012091 0.011495 -0.006369 -0.013738 0.007328 -0.005168 -0.012675 0.002938 -0.009855 -0.016079 0.011427 0.003907 -0.016246 -0.007038 0.010175 -0.012523 0.006594 -0.016859 -0.004031 -0.004162 -0.000169 -0.014147 0.013862 -0.011422 -0.006452 -0.014345 -0.014554 0.010639
1309 -0.008214 -0.008874 0.016209 -0.015859 0.015179 -0.005597 -0.014162 -0.000720 -0.006665 -0.012357 -0.009986 -0.010876 -0.014457 0.009106 -0.003936 0.003796 -0.001481 0.007759 -0.000645 -0.000173 0.014909 -0.012162 0.004897 0.009759 0.000475 0.006738 -0.001665 0.000551 -0.010172
1079 -0.010339 0.010401 -0.009130 0.009063 -0.008992 0.012421 0.006729 0.008755 -0.004631 -0.002677 -0.006852 -0.007565 0.013641 -0.013564 0.009543 -0.006467 0.009450 0.015202 0.007527 -0.005646 -0.008400 -0.014118 -0.004229 0.014339 0.006611 0.000004 0.001833 0.005150 -0.001181
1076 0.005737 0.001650 -0.003887 0.007821 0.014316 -0.000237 -0.000366 0.007432 -0.013657 -0.004876 0.000374 -0.005886 0.007736 0.012658 -0.005199 -0.005625 -0.004345 -0.004850 -0.005477 0.016519 -0.016600 0.016360 0.001921 0.016679 -0.012986 0.013797 -0.016059 0.003603 0.005076
1020 0.001798 0.006127 0.002582 -0.011017 -0.001516 -0.014886 -0.011855 0.003783 0.015539 0.006557 0.012013 -0.012559 0.016042 -0.001193 -0.015902 -0.004172 -0.009326 -0.005372 -0.014374 0.002985 -0.000708 -0.005155 -0.000327 0.010996 -0.013207 0.013385 -0.009809 0.016310 0.010401
1004 -0.002045 0.002198 -0.002934 -0.005946 -0.006894 0.013057 0.007474 0.015291 -0.012455 0.006987 -0.003043 -0.005637 0.013641 -0.001296 -0.008499 -0.014747 -0.009582 -0.005758 -0.007978 -0.009343 -0.009227 0.005530 0.002192 -0.006783 -0.002364 -0.010497 0.003527 0.017012 -0.009388
1356 -0.015857 -0.005448 0.009952 0.000140 0.008744 -0.015597 -0.012409 -0.007089 0.002006 0.002113 0.006885 -0.007749 0.008652 0.004044 -0.000884 0.004092 -0.016905 -0.012895 0.008400 0.008340 -0.013847 -0.003358 -0.011247 -0.001439 -0.014214 -0.004703 -0.000422 -0.006687 0.005998
1039 -0.011975 -0.002264 -0.016608 -0.013984 -0.001764 -0.013921 -0.016903 -0.003801 0.002931 -0.007713 0.001546 -0.016023 0.006689 -0.000989 0.012447 0.009886 0.006558 -0.005563 -0.009272 -0.013555 -0.013846 0.000692 0.014026 -0.008207 0.007004 0.016396 -0.007944 -0.005810 0.009179
1276 0.000062 -0.004990 -0.016363 0.013390 0.010854 0.009985 -0.003192 -0.012556 -0.010674 0.016880 -0.001754 0.010339 -0.013958 0.012642 -0.010009 0.000082 -0.002976 0.010533 0.013247 0.009028 -0.001338 -0.015897 -0.016178 -0.007242 0.004290 0.015552 -0.012870 -0.007467 -0.007938
1108 0.011434 0.007423 -0.002826 0.006024 -0.010776 -0.013645 0.000512 0.000148 -0.008146 -0.006355 0.003842 -0.009234 0.016263 0.012607 -0.001648 0.010722 0.016153 0.008185 0.012087 -0.002313 -0.006120 0.003649 0.004861 0.002006 -0.011695 0.010694 0.008686 -0.011072 -0.007941
1172 0.012986 -0.001557 -0.004057 -0.004465 -0.011873 0.012160 -0.013462 -0.015743 0.006618 0.014063 0.000406 0.013005 -0.002968 0.006098 -0.002253 -0.004520 0.011233 0.011973 0.014389 0.013137 -0.001642 0.012047 0.014935 -0.014345 -0.000027 -0.005132 -0.008026 -0.007194 -0.008156
1075 -0.016779 0.007770 -0.009256 -0.002135 0.001601 0.006338 0.009986 -0.007821 0.008236 -0.010927 0.008432 -0.007593 0.006176 0.008827 -0.011693 0.007815 0.011142 -0.008087 0.004322 0.013006 0.004027 -0.005571 -0.008871 0.003258 -0.013922 -0.008240 -0.009843 0.003129 0.000800
1050 0.006594 -0.002662 0.012179 0.016106 0.008684 -0.003584 0.010422 -0.005489 0.010376 0.013204 0.017106 -0.003426 0.014865 0.005681 0.011246 0.000240 -0.007806 -0.006835 -0.011179 -0.009295 0.012438 0.007121 0.015186 -0.011357 0.014083 -0.011257 -0.014735 0.000669 0.012953
1310 0.004624 -0.007141 -0.004280 -0.000870 -0.003636 -0.007937 -0.005144 0.017197 0.002366 -0.010079 -0.006038 0.002102 -0.014016 -0.010536 -0.013133 0.010956 -0.013336 -0.017241 -0.011623 -0.001192 -0.001928 0.007175 -0.013217 -0.012303 -0.000660 -0.009308 0.016738 0.005277 -0.013504
1199 0.014745 -0.002788 0.009651 0.003173 -0.007113 0.003677 -0.002786 0.014118 -0.007239 0.003677 -0.002380 -0.011508 0.013281 -0.013575 -0.014710 0.001989 0.008799 -0.007783 0.002409 -0.012595 0.006175 -0.000999 -0.011132 -0.012795 0.006328 0.004124 0.017200 -0.001327 -0.007918
1243 -0.010333 0.002032 0.016430 -0.008452 -0.015952 0.012514 0.002016 0.008846 0.000986 -0.007105 -0.007379 -0.007583 0.013675 -0.014469 0.005686 -0.004552 0.010437 -0.011140 -0.006430 -0.006637 -0.014525 0.012110 0.005712 0.008351 -0.010358 -0.012295 0.016414 0.009254 -0.005868
1149 -0.013762 -0.002907 0.005424 -0.015072 -0.011170 0.005511 -0.008816 0.010370 0.004638 0.006235 -0.008763 -0.001235 0.002434 -0.015229 -0.005326 0.001585 -0.009825 -0.004968 -0.004073 -0.015268 0.000783 -0.012151 0.016155 0.000573 0.010802 0.006695 0.009927 0.001793 -0.003576
1184 -0.006572 -0.002900 0.016642 -0.010592 -0.007149 0.010552 -0.011710 0.007526 -0.014369 -0.007223 0.012203 -0.015576 0.015834 0.015412 -0.010201 0.011493 -0.014510 0.010944 0.013623 -0.012155 0.008330 0.016607 -0.001442 -0.002337 0.000458 0.014095 0.014268 -0.002993 0.003158
1340 -0.002395 -0.005745 -0.000713 0.015377 0.008979 0.004812 0.010579 0.006409 -0.004985 0.003136 -0.011270 0.006152 -0.002031 0.006863 0.013284 -0.004098 0.009902 -0.004012 0.007294 -0.004708 -0.007493 0.014784 0.006460 0.015201 0.009462 0.013669 -0.008760 0.002665 0.006350
1089 -0.012758 0.006232 0.005644 0.015551 0.007132 -0.003984 -0.010948 0.007933 -0.008067 0.013867 0.012598 0.008159 0.007866 0.015222 0.004988 0.005274 0.015751 0.006842 -0.011697 0.007262 -0.012301 0.015426 -0.001488 0.012291 0.015799 -0.017202 0.014511 -0.004977 0.009243
1433 -0.006513 -0.002332 0.003226 0.015765 -0.010192 -0.003868 -0.016656 0.003235 -0.007128 -0.010129 -0.014268 0.003703 -0.010393 0.005232 0.009281 -0.011518 -0.016849 -0.012006 -0.016405 0.014738 0.016970 0.014234 -0.004903 -0.014794 0.017139 0.003386 -0.016543 0.009074 0.000242
1136 0.006624 -0.012979 -0.000160 -0.009953 -0.013482 -0.005163 -0.009320 0.012426 -0.015880 0.013421 -0.008421 0.004441 0.012144 0.012535 0.001144 -0.004677 -0.001532 -0.008600 -0.011033 0.000676 0.008441 0.007175 0.016971 -0.015508 -0.006299 -0.008095 -0.004889 0.007923 -0.004552
1224 0.006338 0.001915 -0.005187 -0.007414 0.005250 0.000988 0.014459 0.016156 0.010440 0.010099 -0.012283 0.007678 -0.008611 -0.005816 -0.006409 -0.003564 -0.003961 0.013666 0.016700 0.016216 -0.011394 -0.017052 -0.006144 -0.017006 0.016118 0.011302 -0.013123 -0.002481 0.005243
1074 0.003087 0.007724 -0.002988 -0.008513 0.007998 -0.012350 0.009606 0.014152 0.006916 -0.006387 -0.001457 -0.015208 -0.003643 -0.008269 -0.010450 0.006581 0.005553 0.005120 -0.006439 0.016150 -0.008110 0.010152 -0.009043 0.011014 -0.011628 -0.008108 0.007071 -0.006458 0.004350
1098 0.010717 -0.011666 0.012085 -0.014358 0.001955 0.002002 0.013593 0.009268 -0.001290 -0.013272 0.016579 0.012038 0.013620 -0.005728 0.010676 0.013077 0.007528 0.015019 -0.010963 0.002452 -0.003352 0.010600 0.007002 0.004003 0.014480 -0.000904 0.003358 0.010109 0.000701
1327 -0.004111 -0.006327 0.016517 -0.015505 0.008996 0.015225 -0.000365 0.016325 0.008614 0.005741 -0.009116 -0.001596 -0.004321 -0.001530 -0.002309 -0.007436 0.002182 0.011107 0.014877 -0.014076 -0.013450 -0.008614 0.005205 0.017058 0.014579 0.009778 -0.010242 0.016826 0.016707
1101 -0.011144 -0.003031 0.004087 0.017079 0.001162 -0.011693 0.004458 0.005810 0.012065 -0.012136 0.002563 -0.010348 -0.007808 -0.002387 -0.010533 -0.006880 -0.002559 0.006466 0.001036 -0.005440 -0.015404 0.012922 -0.004417 -0.012545 -0.012058 -0.004312 0.004551 -0.010777 -0.011679
1419 -0.007751 -0.005431 0.011666 0.000598 -0.008247 -0.014528 -0.011062 0.013658 -0.000957 0.007598 -0.008057 0.002165 0.005447 -0.010179 0.014121 -0.001651 0.003102 0.010251 -0.006072 -0.008170 -0.009759 -0.006555 0.011924 -0.001945 0.006455 0.000042 -0.009263 -0.011967 0.007995
1676 -0.006389 0.014699 0.007975 -0.001258 0.008109 0.016667 0.009240 -0.015610 -0.006161 0.012068 0.013456 0.010786 0.006955 -0.003868 0.011456 -0.006847 0.008705 0.000252 -0.006706 -0.014160 -0.014920 -0.006909 0.009390 0.006939 -0.011495 0.013774 -0.013821 0.006873 -0.014192
1220 -0.005051 0.007311 -0.003073 0.015553 -0.011354 0.001153 -0.006620 -0.014395 0.012693 -0.004839 0.012783 -0.017072 -0.001694 0.012858 0.003793 -0.001450 0.009820 -0.003541 -0.012585 -0.010121 0.009364 -0.008918 0.013886 0.016029 0.011070 0.009985 -0.007414 -0.015190 -0.017157
1412 -0.007968 -0.001119 0.000031 -0.015078 0.013940 0.004975 0.008019 -0.007727 0.012344 0.003794 0.008489 0.005009 0.011230 0.013845 -0.003684 0.010023 0.005976 -0.007233 -0.000828 -0.009539 -0.016728 0.002404 -0.015904 -0.012206 -0.005261 -0.010450 0.011088 -0.003214 0.008865
1326 0.013184 -0.006958 -0.004204 -0.008157 -0.015076 -0.014143 0.015227 0.011729 0.015948 -0.005656 -0.014263 0.012281 0.000846 -0.015395 -0.006709 -0.009809 0.009544 0.007628 0.016392 0.014127 -0.012924 0.014816 0.015611 -0.003298 0.013980 -0.014499 -0.012979 0.002116 0.011062
1093 0.002174 -0.016326 0.016850 -0.001216 -0.002044 0.016299 0.011860 0.013900 -0.001511 -0.006499 -0.005896 0.000243 -0.005923 0.013525 0.008830 -0.002460 -0.007974 -0.014220 -0.009939 -0.004554 -0.011686 0.002931 -0.002072 0.002219 0.010887 0.006126 0.007352 -0.012770 -0.016364
1189 -0.003298 0.009843 -0.010618 -0.004783 -0.008737 0.004946 0.013836 0.016135 -0.010202 -0.016907 -0.001411 -0.012491 0.009005 -0.009354 -0.008084 0.005622 0.009071 0.002636 0.015935 -0.012064 -0.003343 -0.007736 0.004345 -0.003295 -0.010965 -0.009228 0.016386 -0.002707 0.011923
1035 0.007485 0.012795 -0.001745 0.008732 -0.002202 0.013419 0.003980 -0.007514 0.006784 -0.005504 0.003652 -0.011743 -0.004730 -0.000373 0.000647 0.012533 -0.009685 -0.003939 -0.012362 0.001227 -0.010308 0.007100 0.005988 0.010177 0.016477 0.013597 0.004176 0.002072 0.000522
1068 0.011615 -0.004437 -0.004114 0.016197 0.004366 -0.013878 -0.005856 -0.007440 0.008279 -0.002042 0.003240 0.007839 -0.016067 -0.007951 -0.011715 -0.006521 0.015860 0.006292 0.010255 0.008048 0.008184 0.009951 -0.002399 -0.007354 -0.008105 0.016758 -0.003032 -0.006512 0.010189
1449 0.001976 -0.008988 0.016520 0.008625 -0.006355 -0.014927 0.011934 0.008824 -0.001636 -0.011419 0.003556 0.015446 0.001129 0.014686 0.003276 -0.004445 -0.003510 -0.012248 0.003962 0.006753 -0.004970 -0.000243 -0.005205 -0.000244 -0.012163 -0.006038 -0.010960 0.013331 -0.015043
1584 0.005553 0.015848 -0.005470 -0.008815 0.005081 0.000864 0.014023 0.007408 0.016715 -0.007645 0.001331 -0.009300 0.006843 0.015113 -0.011353 0.005873 -0.012336 -0.010939 0.014833 -0.001136 -0.007792 -0.009651 0.008221 0.011380 -0.005102 0.014635 -0.001772 0.007690 -0.003454
1358 -0.011919 0.013316 0.012211 0.014826 0.002682 0.010113 0.013855 -0.009328 -0.017006 -0.010596 -0.009623 0.003105 0.011535 0.012797 -0.008676 -0.012847 -0.007323 -0.015756 0.013834 0.015024 0.006051 0.000416 0.013627 0.004202 0.007716 -0.008735 -0.004343 0.008733 -0.004392
1163 -0.003599 0.015738 -0.009028 0.002924 0.003892 0.009530 0.011569 0.005783 0.009858 -0.012749 -0.011939 -0.014077 -0.008873 0.016365 -0.007076 0.013354 -0.007033 0.001420 0.015163 -0.002819 -0.011968 0.000585 0.014869 -0.014403 0.013558 0.003520 0.016645 0.004129 -0.004203
1282 -0.014222 -0.012356 -0.002930 -0.017241 -0.000166 0.001602 0.014734 -0.009043 -0.014432 -0.004715 0.008372 0.013501 -0.005599 -0.005694 0.016746 -0.008413 -0.011658 -0.013124 0.010933 -0.005734 -0.007759 -0.014946 -0.010293 0.006345 -0.009295 -0.008214 0.007398 -0.010308 -0.010278
1377 -0.011784 -0.011989 -0.013878 -0.003338 -0.013507 0.007411 0.008291 0.010271 0.003368 0.008040 0.012504 -0.004490 -0.007824 -0.008056 -0.016231 -0.000482 -0.015619 0.010561 0.015826 0.000175 0.001955 -0.003407 -0.008705 -0.009861 0.011120 -0.001448 0.004665 0.013676 -0.003945
1056 -0.010998 -0.006013 0.009503 0.003853 0.014171 -0.004304 0.001850 -0.002390 0.000861 0.008691 -0.014216 0.001944 -0.013371 0.006757 0.008647 -0.013735 0.002692 0.000023 0.006400 0.000364 -0.001065 -0.005131 0.009890 0.010280 0.006750 0.015249 0.015182 0.007148 -0.005765
1011 0.001009 0.010684 0.010987 -0.008214 0.002760 0.009232 -0.009442 -0.000844 0.003907 0.009478 -0.013439 0.016832 0.012184 -0.011086 0.015238 -0.004134 -0.006564 0.000625 0.012765 -0.005877 -0.004056 -0.015844 0.002925 0.011283 -0.006634 0.008717 -0.004047 -0.007646 0.017075
1103 0.017064 0.010836 -0.004379 -0.000626 0.002009 -0.015596 -0.013669 -0.015197 0.000519 0.014924 -0.003785 0.015650 0.000837 0.014261 -0.006223 -0.002479 0.012050 0.013949 -0.006924 -0.006955 -0.003114 -0.016846 0.008036 -0.008985 -0.008748 -0.005668 -0.000978 0.013430 -0.003602
1570 -0.011649 0.015080 -0.007651 0.006397 0.002001 0.001685 0.006287 -0.000043 0.004151 0.010763 -0.014868 0.010379 -0.004096 -0.016245 0.010614 0.008378 -0.006846 0.014875 -0.005008 0.003299 -0.007147 0.008098 -0.001761 0.001883 -0.004331 0.017040 0.017216 -0.009657 -0.002921
1133 0.000711 0.011567 -0.016488 -0.015575 -0.008022 -0.012380 0.016388 -0.000435 0.015537 -0.006364 -0.000144 0.003298 0.002771 -0.011443 0.004791 0.002096 0.012459 -0.003260 -0.001217 -0.007561 -0.009203 0.004285 -0.001069 0.017090 -0.016178 -0.001727 0.003508 0.003504 0.010247
1126 0.010791 -0.004277 0.003563 -0.013100 0.015520 0.009050 -0.007650 -0.007413 0.004747 0.006768 -0.002839 -0.014547 -0.008477 0.015147 -0.009115 -0.009245 0.011005 -0.008020 0.016642 -0.000106 0.004509 0.005431 0.008724 -0.003126 -0.003346 -0.002231 0.000505 0.009108 0.014168
1769 0.006807 0.005624 -0.013195 -0.012175 0.001108 -0.004916 0.001602 0.010707 0.014076 0.014639 0.017008 0.012311 0.011143 0.009464 0.015387 0.003906 0.013280 -0.006588 0.006577 0.015459 0.016762 0.013546 0.015152 0.002197 0.005080 -0.011839 0.007993 0.014877 -0.014379
1222 0.000648 0.004339 -0.006017 -0.005636 -0.014349 -0.002295 0.011186 0.008472 0.001283 0.003682 -0.000426 -0.002099 0.016111 -0.007931 0.010137 -0.011308 -0.000201 0.012239 0.015600 0.012600 0.009354 0.003860 0.011447 -0.002716 -0.004380 -0.005782 -0.009258 -0.011296 0.006405
1390 0.015425 -0.004180 -0.004119 -0.006277 0.017105 -0.003104 -0.002312 -0.015664 -0.014848 -0.009381 0.015915 -0.006521 0.001290 0.004729 -0.010688 0.011708 0.015887 -0.005738 0.014849 0.002528 0.014641 0.007890 0.001505 -0.005554 0.014266 -0.001666 0.006942 0.003420 0.015357
1021 0.009254 -0.012726 0.003894 0.011142 -0.006398 -0.010020 -0.011414 -0.001236 0.009110 -0.003931 0.011984 0.004717 0.016861 -0.007638 -0.012882 -0.015080 -0.015803 -0.007247 0.008775 -0.009914 -0.003725 0.005729 -0.007213 -0.011105 0.005453 0.004303 0.001620 -0.000599 0.005673
1001 0.012672 -0.002235 -0.013444 0.008523 -0.006651 -0.008645 -0.007901 -0.012608 0.015948 -0.012031 0.005943 0.014789 -0.012003 -0.012620 -0.006860 -0.009413 -0.015323 0.011136 0.005035 -0.004664 0.012147 -0.006917 -0.009371 -0.003472 0.000390 -0.014045 -0.012244 -0.004282 0.010398
1328 0.012608 -0.016515 0.006319 -0.002125 -0.005939 -0.001793 -0.015623 0.013659 -0.014508 0.007763 -0.001173 -0.011051 0.010349 0.007816 0.016914 -0.011022 0.008566 -0.005670 -0.007528 0.005754 -0.012542 -0.004168 0.000736 0.000250 0.003002 -0.014002 -0.004529 -0.002038 0.000213
1140 -0.010104 0.016980 0.002453 0.008245 -0.009295 -0.015893 0.014709 0.003963 0.006943 -0.007622 0.008024 0.012513 -0.007438 0.012455 -0.008159 -0.015355 0.014655 0.016081 -0.007652 -0.004999 -0.002563 0.007748 -0.003424 -0.012574 0.001031 -0.003675 0.011714 -0.000467 0.006197
1651 0.012910 -0.015385 0.012274 -0.011433 0.008669 0.014608 0.011969 -0.002459 0.012822 0.014615 0.013416 0.016898 -0.013227 -0.016640 -0.010858 0.002161 -0.009079 0.015566 0.016740 -0.005349 0.006924 0.009704 0.012270 -0.003622 0.000695 0.001054 -0.016072 -0.004070 -0.010326
1264 -0.013390 -0.015894 0.003864 -0.007541 -0.000289 0.006039 -0.001133 0.012801 0.006458 0.014024 -0.001394 -0.000905 0.005221 0.007103 0.015236 -0.009719 0.017120 -0.012894 0.013628 0.002921 -0.011056 -0.004994 -0.015302 -0.010683 0.006446 -0.009623 -0.004863 -0.001209 -0.008141
1471 -0.009251 -0.015521 -0.010575 -0.012141 -0.007929 -0.016635 0.003765 -0.007945 0.012870 -0.016723 0.006928 0.001261 -0.010829 -0.005514 -0.011908 -0.001358 0.007620 0.013322 -0.006557 0.005345 0.004637 -0.016565 -0.006247 0.015116 -0.008811 0.002670 0.006294 -0.016781 -0.001611
1488 -0.002447 -0.004513 0.004630 0.016342 -0.012408 -0.015093 -0.016116 -0.007350 -0.001638 0.008780 -0.009465 0.012614 -0.013418 0.009553 -0.011583 -0.011396 -0.014617 0.006744 0.004673 0.010652 0.000939 -0.012358 -0.014534 -0.003119 0.005780 -0.005593 -0.011305 -0.012944 0.000994
1071 -0.015079 -0.016098 -0.002316 -0.006616 -0.008018 0.004505 0.007272 0.004472 -0.010731 0.001245 0.015808 -0.010322 -0.004161 -0.013101 0.006299 -0.002919 0.000610 -0.001813 0.014189 -0.004198 0.011595 -0.002245 -0.010668 0.010158 -0.013706 0.010458 -0.002543 -0.009777 -0.011878
1088 0.002704 -0.005120 0.008618 -0.002164 -0.009427 -0.009649 -0.002526 0.013872 -0.005765 0.005747 -0.002795 -0.008150 0.005655 0.013282 0.006397 -0.010982 -0.003392 0.013961 -0.004333 -0.015712 0.009061 -0.003277 -0.012824 -0.000272 0.003955 -0.010927 0.002692 -0.015914 -0.013673
1139 0.007130 -0.001865 0.004461 -0.001153 0.006346 -0.004356 -0.015344 0.004600 -0.006322 0.005785 -0.014666 0.010967 -0.010634 0.003842 -0.001857 -0.007466 -0.000050 0.009853 -0.015010 0.010690 0.008387 -0.001262 -0.014919 -0.012898 0.006373 -0.017213 0.016105 0.009266 0.008028
1073 0.004263 0.000314 -0.014449 0.004743 -0.017129 -0.010550 0.009672 0.016053 -0.004576 0.005730 0.016219 -0.002599 0.007335 0.001456 -0.015751 0.008366 0.001567 -0.015441 -0.013915 -0.007989 0.009179 0.006004 -0.009415 0.016230 -0.009023 -0.003346 0.005669 0.011916 -0.010391
1072 0.014513 0.004911 -0.007937 -0.015255 -0.001986 -0.012852 -0.008908 0.015040 0.007333 0.003574 -0.009562 0.014547 -0.007741 0.002187 -0.017167 -0.004214 -0.000554 -0.016778 -0.016400 0.004695 0.004279 -0.010230 -0.005389 -0.006985 0.015090 0.013887 -0.003041 -0.003301 -0.002152
1205 0.000056 -0.013006 -0.009434 0.007939 0.016635 -0.015081 0.007253 0.010058 0.003689 -0.000025 -0.010177 0.006633 -0.001930 0.000797 -0.008455 -0.007843 0.013025 -0.004877 -0.010977 -0.011008 -0.006979 0.007415 -0.013564 0.001911 0.006609 0.013300 -0.008024 0.005281 -0.002222
1523 0.015442 0.007510 -0.016930 0.015312 -0.000138 0.001114 0.003544 -0.012305 0.010468 -0.013714 0.014926 -0.015591 -0.013659 -0.003811 -0.002071 0.017089 0.006025 -0.004590 0.008021 0.010064 -0.009013 -0.011001 -0.015410 -0.001245 -0.016253 0.001598 -0.010879 0.011209 -0.012867
1534 -0.016869 0.015926 0.016418 -0.015723 0.009035 0.008841 0.015215 0.016664 -0.014405 -0.007810 -0.015896 0.006833 -0.004422 -0.011976 0.011674 -0.005257 0.008213 -0.005769 -0.002995 -0.009457 -0.017214 -0.016003 -0.005036 -0.009124 -0.001187 -0.016011 0.003689 -0.005694 0.006789
1245 0.001399 -0.014855 0.003368 0.013829 0.001500 -0.010574 -0.003885 0.004898 0.013749 -0.003742 0.003482 -0.003136 -0.002796 0.009023 0.001758 -0.015434 0.016262 0.001466 -0.004234 0.004068 0.007174 0.004523 0.012905 -0.012128 -0.009824 -0.005067 -0.006880 -0.002470 -0.001846
1272 0.004781 0.014011 -0.004331 0.000262 0.014908 0.015712 -0.016822 -0.003232 0.001957 0.007020 0.011842 0.000786 -0.007129 0.012632 0.002423 -0.003957 -0.012054 0.008128 -0.002717 0.016832 -0.011775 -0.011057 -0.000770 -0.008920 0.011723 0.000017 0.015411 0.014831 -0.000096
1042 -0.004723 0.010176 -0.000049 -0.006705 0.002814 -0.013514 0.011176 -0.010658 0.005853 0.002194 -0.012961 0.003481 -0.000862 0.004871 -0.010572 0.014945 0.000680 -0.001371 -0.012901 0.009138 -0.012597 0.011477 0.003892 -0.005208 0.002208 -0.012015 -0.004976 -0.002783 0.006828
1026 0.008322 0.002530 -0.005588 0.016767 -0.014719 -0.008256 -0.009062 -0.006557 -0.016785 -0.002573 0.014916 0.011048 0.005422 -0.015281 -0.007715 0.017110 0.009424 0.002685 0.007758 0.008275 0.008110 0.009029 0.006503 0.004321 -0.009936 -0.007454 -0.000073 0.006544 0.012060
1112 0.015306 -0.013641 -0.000737 0.007882 0.010233 0.016928 0.010389 -0.011435 0.007265 0.005358 0.013739 0.001893 0.004114 0.009505 -0.009197 0.002513 0.014998 -0.002291 -0.015170 0.002668 0.010628 -0.003013 0.012794 0.003785 0.014747 0.001575 -0.002952 0.010854 0.011748
1002 -0.003226 -0.007374 0.004151 0.004735 0.012707 0.003435 0.000917 -0.016634 0.004508 -0.006147 -0.013968 0.009009 0.001073 -0.015762 -0.013696 -0.010921 -0.008023 0.014212 0.014715 -0.006258 0.009724 -0.008299 -0.011864 0.002224 0.005021 0.005485 -0.003333 0.015071 0.007681
1385 -0.012356 -0.013243 -0.016160 0.000063 -0.007682 -0.014419 -0.009623 0.006101 -0.012431 0.006256 -0.015827 -0.013404 -0.004393 0.003636 0.010369 0.009372 -0.007492 -0.016910 0.008759 0.006250 -0.003594 0.014574 0.011984 0.008042 -0.008174 -0.004459 0.005723 -0.000597 -0.002143
1086 0.000601 -0.016746 0.009884 0.002701 0.007315 -0.014480 0.012602 0.011903 -0.006569 -0.013241 -0.009017 0.015287 -0.005517 0.011470 0.001182 0.001676 -0.009210 0.006731 -0.013640 -0.001228 -0.008539 -0.012480 0.011705 -0.014717 0.013910 0.016537 0.005643 0.008327 0.007254
1040 -0.011735 -0.003856 -0.007876 0.013889 0.004605 0.006996 0.013660 -0.002661 -0.005930 -0.002506 0.006746 0.005500 0.009539 0.011034 0.015794 0.002117 0.011444 0.004474 0.000631 0.001053 0.010925 0.003874 -0.012112 -0.005810 -0.009819 0.001174 -0.006766 0.000536 0.012255
1325 -0.012792 -0.003544 -0.002560 0.015317 0.001915 0.004199 -0.015599 0.000009 0.001597 -0.003483 -0.013667 -0.010636 -0.010541 0.013918 -0.015821 0.016079 -0.005553 0.013129 -0.012245 0.015007 0.005298 -0.009408 0.015653 -0.005258 -0.002549 0.012920 0.004970 0.005597 -0.007444
1426 0.001519 0.008171 0.011972 -0.009378 -0.003164 0.004393 -0.015942 0.001299 0.001639 0.007776 0.016781 0.010475 0.013026 -0.016795 -0.000773 -0.014423 0.005747 0.008169 -0.011678 0.006158 -0.003194 0.004339 0.002729 -0.005838 -0.000856 -0.005555 -0.004592 0.014904 -0.007479
1210 0.002603 -0.000366 -0.003420 0.010764 0.011796 -0.016013 0.006100 0.000432 0.002302 -0.013094 -0.006359 -0.001345 -0.004588 0.008810 -0.010371 0.012361 0.009488 -0.016818 -0.012430 -0.000253 0.010138 0.003172 -0.000889 -0.000530 -0.013400 0.012575 -0.002972 -0.007103 0.009780
1443 0.009180 0.008094 0.013263 -0.011741 -0.012727 -0.007437 0.013506 0.012392 -0.006262 0.002240 0.010491 0.006242 0.015851 -0.008710 -0.005508 0.011606 0.017145 0.012013 0.001800 0.009554 0.000339 0.012783 -0.008946 0.003247 -0.005448 -0.008484 -0.002633 0.003044 -0.015302
1439 0.000756 -0.003207 0.010249 0.001798 -0.009389 -0.010380 -0.008209 0.013435 -0.014996 -0.013305 0.005584 0.007313 0.013154 -0.005231 -0.016624 -0.003611 0.003581 0.016402 0.008890 0.011820 0.010065 0.007106 0.009859 0.013850 -0.002945 0.015407 -0.012471 0.011838 0.016269
1406 -0.012432 -0.015882 -0.003225 0.004094 0.009412 0.014901 0.014877 -0.012826 0.004519 0.012647 0.010205 -0.008276 0.002136 0.009964 0.003769 -0.003155 0.014930 -0.005326 0.012246 -0.014376 0.015634 0.007474 -0.009369 -0.004679 0.001127 -0.013592 0.011050 -0.014995 0.008538
1640 -0.006956 -0.001196 0.002176 -0.001436 0.007353 -0.004999 0.006255 0.007821 0.012158 0.007940 0.003987 0.006708 0.003525 0.001974 -0.012111 0.008568 -0.011999 -0.006236 -0.003274 0.004666 -0.004613 -0.014270 -0.015718 0.005153 0.013994 0.000384 -0.004522 0.006019 0.012041
1159 -0.000357 -0.009017 -0.011916 -0.008490 0.013967 -0.009789 -0.015654 0.011039 -0.009370 0.016589 -0.011472 -0.006298 0.013351 -0.012362 0.009296 0.010959 0.011643 -0.014048 -0.015642 0.006085 -0.005507 0.009763 0.001077 0.001306 -0.001476 0.010909 -0.009069 0.012260 0.009008
1018 -0.014106 0.008151 -0.010896 -0.005012 0.011908 -0.006218 -0.003140 -0.004200 -0.002007 -0.006499 0.008798 -0.005208 0.007871 0.003335 0.016373 0.010595 0.012796 -0.013434 0.005768 0.008234 0.006995 -0.010216 0.005829 -0.007264 -0.000274 0.015584 -0.009749 -0.005144 -0.001964
1054 0.010032 -0.011273 0.013425 -0.016906 0.001885 0.014224 -0.008418 -0.008701 0.016054 0.003811 0.010032 -0.014094 -0.008570 -0.013406 -0.010869 0.001739 0.004325 -0.010751 -0.016896 0.003629 0.016092 0.011184 -0.016620 0.009154 0.003689 0.002161 -0.011898 0.010856 0.002200
1349 0.003851 -0.014589 -0.013454 -0.007319 0.007085 -0.013815 -0.007856 -0.000003 -0.016398 -0.017177 0.008681 -0.004049 0.005486 -0.016612 -0.001200 -0.006258 0.009733 -0.009635 0.008557 0.007531 0.004661 0.000078 0.003066 -0.000120 -0.013848 0.006463 0.000066 0.007768 0.013696
1010 0.007818 -0.000978 -0.007808 -0.000894 0.007029 0.004311 0.006926 -0.010453 0.005703 0.005372 -0.008521 0.003362 0.007712 -0.010001 0.012744 0.002535 -0.014016 -0.003132 0.017125 -0.014601 -0.014411 -0.015467 -0.014963 0.002709 0.008585 0.000693 -0.008187 -0.001934 -0.008696
1003 -0.015798 -0.010206 0.007565 0.000005 0.013732 -0.008688 -0.013714 0.016141 -0.016468 -0.000691 -0.006535 0.003372 -0.000468 -0.000733 -0.016021 0.012282 0.015412 -0.005204 -0.007995 0.000917 -0.008475 0.009066 -0.010030 0.005350 -0.004665 -0.002790 -0.015740 0.003082 -0.017097
1137 0.004158 -0.009500 0.001794 0.003340 0.016599 -0.014921 0.005086 0.002623 0.008299 0.011170 -0.016901 -0.000035 -0.002574 -0.005103 -0.001165 -0.008372 -0.005517 -0.007854 0.010538 0.002284 -0.001006 0.010136 -0.009631 -0.009607 -0.012282 0.005575 -0.000262 0.006888 0.000386
1235 0.012584 0.001819 -0.010102 -0.012351 0.013186 0.007680 -0.014792 0.006629 0.010283 0.012753 0.014196 0.014268 -0.003133 -0.016689 0.008007 -0.004675 -0.015936 -0.016822 0.001662 0.008498 0.006121 0.013822 0.015351 -0.005740 -0.012420 -0.015064 0.011205 0.016850 -0.003298
1038 0.008632 -0.007463 -0.013342 0.016695 -0.006085 -0.006965 -0.004539 -0.015072 0.002143 -0.006458 0.013929 -0.004574 -0.009542 0.002041 0.016961 -0.001541 0.003868 0.013945 0.003380 0.016333 0.002571 -0.003167 -0.000872 -0.006767 0.008989 0.005262 0.002809 -0.009844 0.012548
1305 -0.007360 -0.013727 -0.016813 -0.000683 0.004718 -0.008793 0.004700 0.000720 0.009451 -0.014989 0.015020 0.005546 0.012805 0.013304 0.002210 0.013384 0.011689 0.004236 -0.015546 0.000716 0.005355 -0.004838 0.015258 -0.013656 -0.004459 0.015850 -0.007720 -0.012371 -0.004555
1214 0.006966 0.001487 0.016791 0.000017 -0.015011 0.013138 0.003903 -0.016782 0.004438 0.007279 -0.002840 0.009144 0.010751 -0.011521 -0.003083 -0.004729 -0.008905 0.007070 0.007550 0.016229 -0.011759 -0.008976 -0.013518 -0.014134 0.001272 0.014606 -0.014874 -0.010189 0.007414
1217 0.014126 -0.001460 0.012724 -0.008689 0.009480 0.007154 0.016882 0.004136 -0.003742 -0.004244 -0.007844 0.008514 -0.001587 0.014331 0.014482 0.002011 0.015823 -0.000528 0.000012 0.006382 -0.007631 -0.006715 0.001980 0.006192 0.010509 0.011128 -0.001691 -0.013299 -0.001400
1100 -0.015815 -0.013843 0.005115 0.010878 -0.012404 0.004529 -0.008210 -0.012535 -0.003658 0.010913 0.014963 0.007813 -0.003843 -0.010730 -0.009318 -0.013112 0.011954 -0.002624 0.012163 0.005968 -0.000967 0.006255 0.012196 0.002823 0.005013 -0.010031 -0.009682 -0.007895 0.003846
1382 -0.012203 -0.005254 0.004650 -0.005056 0.007094 0.012239 0.010803 -0.006369 -0.000839 0.007528 0.012997 -0.013022 0.004810 -0.013371 -0.012619 0.008836 0.001136 0.007528 -0.013343 -0.015590 -0.013922 0.004562 -0.016410 -0.014991 0.011214 -0.011270 -0.009079 -0.014903 -0.000941
1158 -0.014929 0.007169 -0.014315 -0.002215 0.009444 -0.014425 -0.006194 -0.004786 0.004146 0.002613 0.014988 0.010752 0.007290 0.009680 0.005869 0.001426 -0.008328 -0.003632 0.013622 -0.005744 0.007540 -0.004676 -0.010829 -0.007667 -0.000090 -0.009112 -0.005972 -0.010502 0.016463
1194 0.009810 0.016079 -0.016037 0.002761 0.004347 -0.008694 0.014667 -0.001553 0.016993 -0.000084 -0.003685 -0.007144 -0.008855 -0.007459 -0.001286 0.014509 -0.005737 -0.012455 0.013497 -0.003788 -0.013485 -0.001773 -0.007067 -0.002184 -0.000288 0.007562 0.012422 -0.012230 -0.000949
1060 0.013863 -0.013602 -0.009083 -0.010980 -0.008622 -0.012912 0.016634 -0.016893 0.005348 0.001192 -0.003929 0.011873 0.007868 0.009868 -0.001206 -0.009641 -0.006775 0.016673 -0.014985 0.016018 0.005912 -0.001404 0.005391 0.004939 0.014808 -0.006570 -0.005913 0.003153 0.012906
1179 0.012688 -0.004675 0.007908 0.002749 0.003746 0.013595 -0.002363 0.015282 -0.007082 0.001789 -0.012104 -0.003391 -0.011315 -0.003809 -0.001702 -0.004994 -0.017032 0.013238 0.012374 -0.016873 -0.001542 -0.002860 -0.004809 0.010065 -0.016027 0.001107 0.001274 0.014476 -0.015919
1114 0.008621 0.013362 -0.010095 0.004030 -0.003272 0.010221 0.008283 0.004852 -0.016518 -0.014983 0.017201 -0.007041 -0.013804 0.013465 -0.011061 -0.012732 0.012655 -0.003438 -0.013737 -0.013767 0.014788 -0.010524 -0.005872 0.011550 0.017053 0.011807 0.007638 0.006445 0.008401
1845 0.013440 -0.003440 -0.005205 0.000118 -0.011815 -0.008935 0.004899 0.010181 0.008300 -0.007632 0.000088 0.016582 0.013671 -0.000844 -0.009736 -0.011560 0.003454 0.009282 -0.003815 0.004268 -0.002834 -0.006567 0.003443 0.011907 0.015651 0.004658 -0.015632 0.005740 0.010279
1080 0.004550 -0.014438 0.003361 -0.012930 -0.013902 0.002809 0.004581 0.004212 0.000368 0.009374 -0.008066 0.017093 -0.003695 0.006610 -0.011958 0.009773 0.004789 -0.014988 -0.009500 -0.000747 -0.004207 0.003994 -0.015954 0.013939 -0.010415 -0.011025 -0.011445 0.015250 0.007083
1128 -0.001783 -0.007532 0.005822 0.008019 -0.003879 0.017144 0.016439 0.011310 0.003367 -0.007492 0.001865 -0.006176 -0.004207 0.003214 -0.013637 -0.016719 -0.012959 -0.005802 0.013684 0.002019 -0.003233 0.000993 0.006797 0.013191 0.009230 0.014997 -0.011252 0.004090 -0.008703
1033 0.003255 -0.001849 0.010025 0.011333 -0.002870 0.016445 0.016816 -0.005780 0.012439 -0.010441 0.012094 -0.009594 -0.015634 0.016523 -0.004088 -0.005109 -0.002900 0.015429 -0.004958 -0.001141 -0.003780 -0.002637 -0.008969 -0.009654 -0.003732 0.000708 0.011243 0.010345 -0.006518
1278 -0.016676 -0.010813 0.007360 0.002453 -0.004890 0.014322 -0.012810 0.012846 0.006760 0.000366 -0.016828 -0.015852 0.012533 -0.007650 0.011380 -0.000632 -0.013692 0.011131 -0.015708 -0.009692 -0.007249 0.010474 0.008793 -0.015791 0.009018 0.007044 -0.012067 -0.002367 0.004867
1027 -0.009446 -0.016123 -0.002941 0.009428 0.005348 -0.013224 0.011153 0.012558 0.014157 0.009352 -0.009205 -0.009404 0.002489 0.000956 0.014092 -0.001535 -0.008665 -0.017138 -0.013234 -0.007643 -0.012255 -0.001529 0.012284 0.004066 0.013652 0.001743 -0.016287 0.000799 0.001887
1780 -0.012191 0.004114 0.009054 0.008450 -0.014541 -0.008551 0.009620 0.013037 -0.007622 0.006197 0.010659 0.007098 -0.014302 -0.012016 -0.013401 0.003229 0.005125 -0.013969 0.000715 0.008648 -0.010173 -0.010787 0.003099 0.001457 -0.010423 -0.008710 0.013899 0.015282 0.012611
1065 0.009350 -0.005038 0.010883 0.012466 0.006420 0.012212 0.015623 0.000553 -0.010644 -0.006484 0.011231 0.004338 -0.009914 -0.016715 -0.014796 0.011915 0.016345 0.008198 -0.008483 -0.008446 0.012918 0.014862 0.013931 -0.004830 -0.010845 -0.008355 -0.014181 0.010143 -0.003029
1197 0.017241 0.000434 -0.004688 0.000693 -0.003664 -0.011448 -0.010759 -0.008651 -0.007269 0.002681 -0.005532 0.006860 -0.017116 -0.003471 -0.002338 -0.004270 0.015004 0.012154 0.005721 0.011411 0.005936 0.016067 -0.013180 0.016092 0.009882 -0.009462 0.016081 0.010978 -0.002816
1341 -0.005346 -0.013328 -0.016471 0.001596 -0.006826 0.007634 0.005211 0.006214 0.008900 0.016735 -0.003187 0.012717 0.014612 0.003234 -0.009421 0.003626 -0.016336 0.013880 0.008031 0.007789 -0.011389 -0.007377 -0.015689 -0.007324 -0.006232 -0.006609 -0.008317 0.007407 -0.011672
1227 0.002037 -0.016371 0.010204 0.013259 0.012376 -0.006731 0.012383 0.014500 0.010218 -0.010252 -0.005712 -0.005203 -0.016800 -0.008188 0.003574 0.015160 0.007247 0.005059 0.015863 -0.009279 -0.006423 -0.005059 0.014733 0.002288 0.013620 -0.008388 -0.014691 -0.009784 0.015259
1451 0.003006 0.005937 -0.002240 0.008346 -0.015264 -0.001308 0.010835 0.006452 0.011972 -0.015488 0.002600 -0.006247 -0.004556 -0.008122 -0.013170 0.008340 -0.013242 0.014482 -0.003303 -0.005603 0.013190 0.007727 0.016534 0.014225 0.016302 -0.002072 -0.012361 0.016647 -0.008780
1289 0.016206 -0.005454 -0.011326 0.016235 0.015770 0.007281 0.013248 0.007184 -0.014751 -0.002736 0.014725 0.000434 0.010655 0.002647 0.007165 -0.016060 -0.003154 -0.011728 -0.011671 0.005216 0.015043 -0.012773 -0.009889 -0.012050 -0.015172 -0.012782 -0.012866 0.012661 0.016941
1545 0.002367 -0.009153 0.005835 0.000323 -0.016414 -0.006277 -0.007817 0.010985 0.000709 -0.012411 -0.002923 0.004475 -0.005470 0.013775 0.009491 0.001742 0.011883 -0.016462 -0.013755 -0.004534 0.006862 -0.000673 0.010089 -0.004073 -0.016465 0.012663 -0.004917 0.014726 0.005285
1215 0.009534 -0.004040 0.011810 -0.013848 0.004876 -0.016943 -0.001224 -0.011871 -0.013558 0.011425 0.015084 0.006298 0.002903 0.007228 -0.014648 0.001439 0.010086 -0.009350 0.006779 -0.007513 -0.016164 0.013830 0.010324 -0.010915 -0.001017 0.005275 0.004432 0.007974 -0.012490
1342 0.002723 -0.002055 0.005866 -0.002241 -0.007632 0.010537 -0.015753 -0.008317 -0.015581 0.000149 0.002931 0.007734 -0.007655 -0.005091 0.012624 0.005921 0.000880 0.015038 0.007095 0.007555 -0.003701 0.010095 0.014195 0.009481 0.009262 -0.000073 0.006360 0.001702 -0.003099
1166 0.011541 0.012785 0.007164 -0.014795 0.000007 -0.007264 0.004963 -0.012968 0.003965 0.016468 0.014657 0.011073 0.013432 -0.006866 0.008634 0.005041 0.001657 -0.005594 0.012480 -0.015642 0.013881 0.007798 -0.013785 -0.008545 0.010488 0.005664 -0.005394 -0.001169 -0.000913
1306 -0.007724 -0.007163 -0.014003 -0.014313 -0.004818 -0.015772 -0.014143 -0.016862 -0.008136 -0.014281 -0.006666 0.000904 0.013431 -0.003850 -0.011766 0.015340 -0.000162 0.012479 0.009617 -0.010840 0.001430 0.001929 0.002374 -0.003865 -0.016939 -0.000779 0.008072 0.009435 -0.003143
1355 0.011824 -0.008861 0.002944 -0.002576 0.012937 0.008279 0.003779 0.009441 -0.003612 -0.004117 -0.010639 -0.015895 -0.017213 -0.011412 -0.006144 -0.014433 0.016201 -0.005743 -0.014427 0.012464 0.014845 -0.004908 0.011536 0.004422 0.007244 -0.001414 -0.005842 -0.013619 -0.014109
1134 -0.017064 -0.014697 0.009836 -0.009933 0.013538 0.002006 0.016669 0.007051 0.006134 -0.009255 -0.007321 0.001216 -0.002268 -0.003381 0.012482 -0.011528 0.004264 -0.002980 -0.008646 0.015851 -0.005890 0.016715 -0.007525 -0.005270 0.002359 -0.004316 -0.015775 0.010587 0.014466
1480 0.005329 -0.006201 -0.002327 0.009043 0.005098 0.013794 -0.010953 0.007390 -0.012220 -0.011272 -0.013962 -0.000393 -0.013325 -0.003646 -0.000424 0.007486 -0.003019 0.006030 0.015912 -0.001495 0.012836 0.001413 0.005720 -0.007786 0.013974 -0.009530 0.017081 -0.008579 -0.015898
1200 -0.003244 0.005203 -0.007470 0.000469 -0.013423 -0.005027 0.007537 0.011786 0.010398 0.008522 0.009487 0.009594 0.016922 0.001401 -0.002355 0.008280 -0.012401 -0.001438 -0.003487 0.011645 -0.014752 -0.009091 0.006325 0.003436 -0.010848 0.002479 0.000300 0.008468 -0.013775
1790 -0.010344 0.008167 -0.013119 -0.014032 0.008853 0.002444 0.002880 -0.014956 -0.012369 -0.007512 -0.012435 0.000088 0.005133 0.009129 0.006093 0.003724 0.009184 0.014263 0.007908 0.008801 -0.009058 0.003739 -0.016553 -0.006742 0.005151 -0.006235 0.003085 0.012092 0.005731
1783 0.004583 -0.010484 -0.003275 -0.005810 -0.007370 -0.001532 0.004316 -0.006253 -0.010953 -0.011750 0.000449 0.001056 0.012276 -0.015090 -0.001534 -0.009123 0.013453 0.005738 0.005112 -0.016619 -0.016883 0.010648 -0.009283 -0.015713 0.016516 0.004886 -0.004037 0.010331 -0.003415
1626 0.001314 0.011778 0.009024 0.013820 0.015465 0.000614 0.012877 -0.002058 0.003872 -0.002460 0.005690 0.008594 -0.002739 -0.003994 -0.017041 -0.014019 0.015627 -0.015153 -0.005372 -0.004631 -0.007061 0.008307 -0.003279 0.000616 0.002208 -0.008211 -0.016157 0.016716 -0.001030
1121 0.015016 -0.001210 0.009548 -0.006003 -0.012774 -0.005668 -0.014933 -0.001354 -0.007744 -0.014581 0.003476 0.009455 -0.011845 -0.006849 0.015674 -0.006881 0.009929 0.015456 -0.000305 -0.016696 0.000850 -0.003034 -0.015251 0.012943 -0.000941 0.004045 0.001141 0.008830 0.010554
1396 -0.011996 0.004736 -0.003726 0.008367 -0.005973 0.003047 0.005384 -0.016330 0.009553 -0.011884 0.003124 -0.006518 0.015434 0.006166 0.009834 -0.013772 0.004125 -0.008260 -0.011670 -0.014174 -0.002219 -0.008679 -0.010454 -0.005339 0.008355 0.007133 -0.004861 -0.000351 0.011404
1370 -0.005574 -0.014959 -0.007803 -0.011020 -0.011853 0.013836 0.003204 0.000068 0.009906 -0.011788 0.016365 -0.010917 -0.012146 -0.003134 0.014841 0.007238 0.011625 0.008515 -0.001573 -0.003686 -0.010466 -0.002808 0.001219 0.013925 -0.000954 0.016066 -0.016700 -0.015953 0.002505
1308 0.009982 -0.012099 -0.004445 0.007686 0.009713 0.000944 0.008728 0.012668 0.006766 -0.004436 -0.011665 0.009036 -0.016180 0.013013 0.014118 0.005701 0.002530 -0.010244 0.016527 -0.009705 0.002733 -0.014860 0.013977 -0.000532 -0.008784 -0.001318 0.010685 0.012631 0.015957
1110 0.008034 0.004216 -0.010095 -0.009740 0.015137 0.005564 0.008099 -0.014756 0.010563 -0.004286 0.014396 0.005902 -0.002735 0.005946 0.012383 0.003634 -0.002737 -0.006220 -0.009190 0.009257 0.009080 0.009587 0.004112 -0.008994 -0.011158 0.005273 0.001389 -0.001125 -0.016255
1144 -0.008731 0.010621 0.005625 -0.008426 0.012393 0.015567 0.006342 -0.012434 0.004761 -0.006743 -0.005822 0.000275 0.006304 0.012797 0.013474 -0.009823 -0.002008 0.007158 0.009060 -0.016673 0.002241 -0.009457 0.001632 0.008581 -0.013510 0.002982 0.006479 0.010795 0.011512
1014 0.014258 0.006714 0.005366 0.016587 -0.008256 0.008880 -0.015220 0.003305 0.007557 0.000551 0.005749 -0.002184 0.013418 0.013872 -0.011738 0.003845 0.004220 -0.008942 -0.011886 0.009483 0.013526 0.000656 0.009134 0.011088 0.013622 -0.015346 -0.013746 -0.001076 0.007715
1431 -0.000498 0.016091 -0.011669 0.014813 -0.008467 0.000076 0.003752 -0.008409 -0.006298 0.014184 -0.016077 -0.008773 0.013593 -0.016963 -0.010305 -0.003302 -0.009207 0.017023 0.014731 -0.015598 0.007228 0.011686 -0.014396 0.014725 -0.003493 -0.007432 -0.006773 -0.005470 0.005049
1045 -0.013828 0.000749 -0.002198 -0.008077 0.002666 -0.008719 0.012510 -0.001864 -0.012266 -0.015426 0.004457 0.008051 0.012366 0.014373 0.012562 0.011834 -0.001494 -0.000722 0.008270 0.006186 -0.014195 -0.009864 0.000614 -0.002234 0.008449 0.011180 -0.014928 0.016108 -0.014119
1710 -0.003108 -0.005217 -0.014887 0.010100 0.009010 0.005535 0.006115 0.013300 0.015031 0.013855 0.013941 -0.013252 0.001425 -0.002492 0.000969 -0.004380 0.002506 -0.002133 -0.001182 -0.007602 0.001712 -0.016978 -0.015407 0.004229 -0.007757 -0.010835 0.008986 -0.006829 0.015103
1013 -0.016445 0.014560 0.007388 0.005047 -0.016508 0.016342 -0.013368 -0.012786 0.005781 -0.007522 0.012612 -0.005768 0.003151 -0.007317 0.009826 0.016862 0.016093 0.005932 -0.016784 -0.008774 -0.000383 0.006535 -0.014723 -0.011202 0.006876 -0.015442 -0.015884 0.009197 -0.010116
1330 -0.016278 -0.015932 -0.004437 -0.010507 0.016405 0.014687 0.013097 -0.014681 -0.015316 0.013338 -0.009795 0.006510 0.002758 0.003291 -0.011782 -0.007433 -0.016733 0.011250 -0.011394 -0.010662 -0.013868 -0.008175 0.001302 -0.009442 0.005886 -0.006550 -0.000228 -0.005033 -0.016254
1081 -0.014967 -0.013364 0.014751 0.003022 0.007347 0.000042 0.011365 0.009611 0.007827 0.006955 -0.011616 0.001862 0.012766 0.013881 -0.004627 0.014779 0.015806 0.013762 0.013088 -0.001082 -0.005546 0.016872 -0.015020 0.005616 -0.001657 -0.001366 0.013061 0.017183 0.001927
1094 0.005376 0.006391 -0.002159 0.015895 -0.004793 -0.006237 -0.015619 0.005526 0.007600 -0.015173 -0.005021 -0.011524 -0.007747 0.010857 0.015612 0.016091 -0.008791 0.013644 0.002001 -0.010776 -0.001820 0.000294 -0.004833 -0.008771 -0.002305 -0.013446 0.008882 -0.005050 0.005255
1085 -0.005005 -0.011017 -0.002566 -0.016563 0.008957 -0.006328 -0.014479 -0.014571 -0.006007 0.015753 -0.007722 -0.001124 0.002361 0.008586 -0.006290 0.007247 0.010630 0.000613 0.009181 -0.009055 0.011857 0.003553 -0.012311 -0.008860 0.007246 -0.011629 -0.004372 -0.000395 0.002240
1142 -0.014960 0.014129 0.002875 0.013148 -0.010961 0.001770 0.015192 0.002238 -0.006008 0.016166 0.008998 0.013460 -0.000093 0.015046 -0.012583 0.010110 -0.017133 -0.012827 0.014255 -0.014111 0.005617 0.011925 0.014401 0.004774 -0.005164 0.002056 0.001297 0.011167 -0.010062
1291 -0.011097 -0.007313 0.001186 -0.000290 0.014756 -0.014695 0.006780 -0.001427 -0.002668 -0.014263 0.006481 0.004521 -0.006086 0.009206 0.006213 -0.010819 -0.001491 -0.010463 0.010958 0.012436 -0.014204 0.011865 0.003140 -0.013685 -0.002103 0.011832 0.014678 0.001634 0.002392
1473 -0.004245 0.001059 -0.016166 -0.011917 0.014848 0.001071 0.010845 0.001719 -0.011807 0.003436 0.007814 0.003037 0.012826 -0.016345 -0.010984 -0.008345 -0.016980 -0.001749 -0.006587 0.015560 -0.006877 0.015332 0.016937 0.003119 -0.009637 -0.008947 -0.015984 -0.007860 -0.013464
1562 -0.014778 0.010354 -0.010247 -0.002764 -0.001159 0.008797 -0.003808 0.009885 -0.015308 0.017035 -0.010982 0.006597 -0.016383 0.007617 0.003230 -0.005697 0.009073 -0.000804 -0.006696 0.004207 0.010644 0.015254 -0.010132 0.011895 -0.013674 0.012170 0.011002 0.010642 0.000810
1381 -0.010549 -0.006010 -0.011355 0.012104 -0.009269 -0.005463 0.016304 -0.011145 0.005773 0.006795 -0.016637 -0.012838 0.009716 -0.015418 0.010773 0.008405 0.012869 0.001313 0.014409 0.013525 0.006242 -0.013715 0.008388 0.016678 0.011615 -0.006384 -0.000759 0.002008 0.013505
1774 0.017036 -0.004273 0.016170 0.008213 -0.014838 -0.008509 -0.007507 -0.007730 -0.012587 -0.001964 0.006710 0.016682 -0.005719 -0.007114 0.004261 -0.011215 0.002121 -0.013688 -0.009224 0.016579 -0.006070 -0.000201 0.009057 -0.003084 -0.008199 -0.011218 0.014042 0.013591 0.000676
1083 -0.006423 -0.014719 -0.016073 0.007592 -0.014171 -0.014141 0.003342 -0.015387 0.004794 -0.001025 -0.001887 0.003422 0.014694 -0.010832 0.006221 -0.004228 -0.003845 0.000696 0.008430 -0.014597 -0.000622 0.011365 -0.015458 0.015805 -0.012198 -0.006378 -0.004825 0.005907 0.006935
1369 0.001507 0.001200 -0.002096 -0.008246 0.006599 0.005956 0.004162 -0.005833 -0.010872 -0.011999 -0.001116 -0.013049 0.006987 -0.015929 0.010332 0.008933 -0.006741 0.001760 0.007298 0.015473 0.016218 0.012859 -0.016626 -0.001443 -0.009310 -0.014180 0.016473 0.000741 0.010799
1344 0.017080 -0.013963 -0.000260 0.007715 0.009567 -0.007381 -0.015119 0.009887 0.001471 -0.007606 0.015337 -0.002042 -0.013021 -0.015563 -0.003668 -0.003178 0.003185 -0.016448 -0.004169 0.011974 -0.011323 0.003406 -0.001356 -0.000315 -0.015544 -0.012735 0.013598 0.014933 -0.015465
1376 -0.003158 -0.013708 -0.016975 0.010219 0.007363 -0.001015 0.008703 0.007971 0.015666 0.011415 0.014580 0.012799 0.013086 0.012008 -0.011987 -0.015076 -0.000261 -0.000853 -0.009096 0.006608 0.012593 0.015421 -0.001737 -0.016569 -0.001756 0.005727 -0.016798 -0.003672 -0.008326
1043 0.000917 0.012554 0.006821 -0.016306 0.000757 -0.016706 -0.014010 0.012762 0.000456 -0.013605 -0.014415 -0.015798 -0.014762 -0.004195 0.015511 0.009095 -0.004317 0.007366 0.009881 -0.002633 0.000463 0.006022 -0.001513 -0.016954 -0.015876 0.001520 -0.003240 0.005121 0.015540
1185 -0.009588 -0.011484 0.001537 -0.000276 0.007267 0.006122 0.001602 0.008635 -0.016617 -0.003482 0.010510 0.007102 -0.011589 0.014219 -0.007788 0.014091 0.014346 0.015598 0.000697 0.005829 0.014126 0.000453 0.006002 -0.013253 -0.011403 0.013374 0.014288 0.000601 -0.002807
1259 0.015903 -0.012363 0.007236 0.005407 0.002414 0.015374 0.003141 0.008532 0.012446 0.005997 -0.014389 0.008460 0.001508 -0.016874 -0.002478 0.009341 0.003042 -0.016676 0.010657 0.000138 -0.001062 -0.014383 0.010179 0.012115 0.005090 0.005037 -0.007470 -0.003292 0.011398
1226 -0.016114 0.005467 0.001254 -0.014190 0.005118 0.004367 0.015200 -0.002743 -0.016716 -0.015379 0.015126 -0.006893 0.008464 -0.011026 0.015662 0.006403 -0.011298 0.009530 -0.011451 -0.008560 0.004453 -0.004077 -0.009688 -0.017166 -0.005924 0.014082 -0.003013 0.014847 -0.009237
1258 -0.011944 0.004220 0.011493 -0.004631 -0.014100 0.006614 -0.002121 -0.015067 -0.016553 -0.007589 -0.014836 0.012972 0.003262 -0.016648 -0.007207 -0.015573 0.012996 -0.001005 0.011608 -0.007008 0.002258 -0.004114 -0.015221 -0.003005 -0.015842 0.005731 -0.014416 0.011509 -0.006740
1553 0.005799 -0.016636 0.015733 -0.007374 -0.016260 0.016915 0.000318 0.004308 0.000091 0.012292 -0.005675 0.010459 0.006340 0.009077 0.008768 -0.005310 0.001583 -0.014084 0.010047 0.011307 0.015248 0.005366 -0.004543 -0.016913 0.010620 0.008023 -0.001348 -0.012616 -0.010843
1612 0.003826 0.008050 -0.005737 0.011871 0.002545 -0.005273 0.015101 0.009392 0.015536 -0.008073 0.011294 -0.009232 0.000505 -0.001908 -0.003285 0.005724 0.000200 -0.000274 -0.015485 -0.005967 -0.016895 -0.009970 -0.011735 -0.009485 -0.005656 -0.009275 0.003080 -0.000201 -0.009736
1318 -0.002525 -0.005666 0.000823 -0.016550 0.013406 -0.009346 -0.010026 0.013905 0.014803 -0.013813 -0.006616 -0.010844 0.006339 0.009687 -0.015127 0.014778 0.000590 -0.016721 0.015801 -0.007366 0.010176 -0.013052 0.006916 -0.000883 0.013417 -0.012722 -0.015477 0.006682 0.001551
1914 0.002234 -0.002301 0.010414 0.001239 0.005743 0.012141 0.009732 0.013129 -0.012065 0.007148 -0.005294 0.014177 -0.016121 0.002915 0.009993 -0.011118 -0.015745 -0.006897 0.001231 0.012489 0.005141 0.011824 0.013619 0.008157 -0.012352 0.003887 0.006335 0.010509 -0.013789
1175 -0.010086 -0.005189 -0.007845 0.004921 0.003143 -0.013765 0.014913 -0.012599 -0.004643 -0.010473 -0.010391 0.008094 -0.002909 -0.002921 -0.011026 -0.010448 0.016439 0.003668 -0.002813 -0.002306 -0.013872 0.006421 -0.011806 0.005084 -0.008320 0.007781 -0.011008 -0.008887 0.002657
1005 0.007804 0.001706 0.014222 0.016999 -0.008703 0.007106 0.016222 0.000552 -0.016661 0.011074 0.012167 0.002398 -0.000273 -0.003078 -0.000452 -0.017008 0.006722 -0.014026 0.000670 -0.011987 0.010929 -0.012782 0.011129 0.000343 0.010740 0.014053 -0.006376 0.009666 0.003286
1260 -0.004685 0.004632 -0.015776 -0.002875 -0.002938 -0.000036 -0.016631 0.001241 -0.004260 0.008862 -0.004854 0.004988 -0.005170 0.010232 0.010277 -0.005281 0.016732 -0.015633 -0.000874 -0.016926 -0.012015 0.010561 -0.004796 0.016554 -0.004140 0.010921 0.005053 -0.010934 0.000130
1422 0.015708 -0.013577 -0.014174 0.000260 -0.009817 0.014390 -0.006903 -0.017202 -0.015343 -0.007355 0.004997 -0.015916 -0.000436 0.007526 0.010230 -0.003470 0.003968 0.001244 -0.006618 0.008888 -0.011367 -0.003108 0.015356 0.000851 0.013070 -0.009191 -0.012118 -0.016689 -0.001161
1129 -0.006964 0.006080 0.004920 -0.003156 0.000226 -0.008588 0.008820 -0.009149 0.000596 -0.007749 -0.007639 0.010352 0.014035 -0.016260 0.012974 -0.016704 -0.003838 -0.013637 0.005010 -0.003554 -0.006607 0.010762 0.013374 -0.003524 -0.006037 0.015816 0.008069 0.003738 -0.013543
1254 -0.001057 0.007039 0.006699 0.003219 0.005989 0.012354 0.004748 0.005411 0.016158 -0.013433 -0.013656 0.011933 0.008998 -0.002564 -0.006732 0.000395 -0.008220 0.002318 -0.016125 0.006697 -0.001654 0.002435 0.013436 0.000383 -0.009618 -0.003435 -0.015636 -0.009667 -0.014755
1389 -0.002289 0.004204 -0.003095 0.017167 -0.009154 -0.012653 -0.008954 -0.000051 -0.003936 0.015023 -0.014230 -0.001146 -0.004970 0.008263 -0.009112 0.002065 -0.005660 0.016904 0.005643 -0.011585 -0.002095 -0.016920 -0.011631 0.011314 -0.006449 -0.013700 0.000135 0.010848 0.010608
1218 -0.009757 0.013720 0.003202 0.010499 0.013588 0.009935 -0.009396 -0.004937 -0.007235 0.009870 -0.007129 0.008622 -0.006827 0.002526 0.005210 -0.006678 0.015729 -0.008529 0.005728 -0.002453 0.013750 0.012671 0.000388 -0.016814 -0.005992 -0.016949 0.008690 -0.008439 -0.008612
1324 -0.016781 -0.008677 0.003895 -0.000838 -0.009799 0.013176 -0.009724 0.003190 0.008201 0.002980 0.013881 -0.009141 -0.005183 0.015636 -0.017124 0.012013 -0.000217 -0.007922 -0.009781 -0.001042 -0.013223 -0.002587 0.012470 0.013671 -0.008893 -0.009928 0.009734 -0.013831 0.000038
1135 -0.002417 -0.011487 0.009026 -0.005106 0.015288 0.013016 -0.011157 -0.007302 0.012711 -0.010381 0.014382 0.001515 -0.007130 -0.007227 0.009960 -0.017091 0.013925 0.007163 0.005603 0.016997 -0.001970 0.016512 -0.003613 0.013558 0.010015 -0.006573 0.006322 -0.011127 0.011531
1658 0.003392 -0.002446 0.012836 0.002589 -0.004946 -0.013386 0.013616 -0.003007 -0.004385 -0.004491 0.013909 -0.003930 -0.007017 -0.016229 -0.004727 -0.006417 -0.004349 0.004382 0.009011 -0.003578 0.012557 -0.009061 0.002558 -0.005262 -0.002557 -0.010559 0.012191 0.003487 0.005896
1270 -0.005314 -0.012388 -0.005400 0.016047 -0.002562 0.016695 0.014459 0.000457 0.007241 -0.007886 0.012140 -0.009227 -0.002929 -0.015929 -0.010610 0.008383 -0.015284 0.015928 0.010545 0.002653 0.013234 0.010938 0.007645 0.005767 -0.004322 0.007076 0.003585 0.000735 0.012671
1528 -0.000152 0.014031 -0.010498 -0.013868 -0.017130 0.011398 -0.009482 -0.009280 -0.014788 0.014928 -0.007100 0.016687 -0.006598 -0.002101 0.009706 -0.007426 0.014919 0.016232 -0.002693 -0.010860 -0.017010 0.004822 -0.008221 -0.007501 0.016478 0.006201 -0.014282 -0.016148 0.010305
1502 -0.005948 0.000201 0.008558 0.009236 0.013755 -0.012099 -0.005706 0.001457 -0.004927 0.006228 -0.008953 0.008455 -0.012576 0.009325 -0.015333 0.010706 0.015508 0.001622 0.000538 -0.010068 0.009384 0.008338 -0.000565 0.012016 0.016479 -0.015221 0.013248 -0.014071 0.004045
1580 -0.007159 0.001707 0.002598 0.001882 0.002293 -0.009059 0.000051 0.014722 0.002280 0.007515 -0.009837 -0.010447 0.000083 -0.012477 -0.015978 -0.016442 0.007542 0.008705 0.008641 0.014532 0.014672 0.015433 -0.003281 0.014150 0.012257 0.000168 -0.007227 0.010867 0.002230
1505 -0.009276 0.002341 -0.003494 -0.016480 -0.002386 0.008181 -0.011632 0.000386 0.000729 0.001785 0.016297 0.006398 -0.001711 0.004923 -0.007879 -0.011478 -0.005765 0.004531 0.011842 0.004569 -0.014593 0.017152 -0.003691 0.012949 0.011255 0.010687 -0.008903 -0.002318 -0.014087
1917 0.011519 -0.004676 -0.002393 0.002686 -0.004090 -0.000959 -0.009419 -0.005384 0.002657 -0.005791 0.014651 0.005183 0.003931 0.007147 -0.007734 -0.008910 -0.013764 0.016982 -0.016572 -0.012508 0.000315 0.005144 -0.014999 -0.001985 -0.001245 0.013055 0.000020 0.008208 -0.015468
1067 0.010064 0.015256 -0.008794 0.000728 -0.010676 0.011548 0.010857 0.012075 -0.013055 0.004512 0.007419 -0.014566 -0.007706 0.010779 -0.016994 0.014930 0.012311 0.013144 0.009744 -0.007366 -0.013927 -0.008606 0.016173 -0.015587 -0.012296 -0.004262 -0.006674 0.003055 0.001325
1178 0.012645 0.012179 -0.007149 -0.013685 -0.012364 -0.014271 0.011478 -0.012492 -0.009824 0.017122 -0.016090 0.009709 -0.016951 -0.001572 -0.014533 -0.004381 0.015109 0.010466 0.011978 -0.015698 -0.005036 -0.010067 -0.001414 0.002714 -0.015956 0.012900 0.010873 -0.007269 -0.006345
1173 -0.012995 0.016507 0.010626 0.013340 -0.015555 0.012139 -0.005645 -0.010821 0.012681 -0.006642 0.006910 -0.007206 -0.011123 -0.016828 0.000479 0.003556 0.007892 -0.005830 0.012712 -0.014886 0.007900 0.010264 0.009753 0.011554 0.002653 -0.015164 -0.008210 0.012231 -0.006930
1051 0.005305 -0.000122 0.001809 0.006883 0.004335 -0.006217 0.004674 0.014307 0.000794 -0.005333 0.013612 -0.000274 0.012835 0.002296 -0.003601 0.012469 0.002495 0.010146 0.013601 -0.007590 -0.009488 -0.006177 -0.015990 -0.005059 -0.010926 0.007180 -0.012883 0.011305 -0.000335
1535 0.010757 0.014627 0.014640 -0.011185 0.016160 0.008638 0.007368 0.006840 0.000726 0.012653 -0.008283 0.007045 0.005497 -0.014406 -0.003836 -0.000829 -0.006594 -0.006163 -0.005604 -0.015298 -0.005520 -0.009861 -0.000923 -0.007580 -0.005089 0.016850 0.012480 0.015433 0.005167
1141 -0.004285 -0.008769 -0.008735 -0.015357 -0.011538 -0.000989 0.000518 0.010920 0.008349 0.002117 -0.001844 0.005105 0.007618 0.012690 -0.013989 0.004841 0.010461 -0.013923 -0.014618 -0.003290 -0.014392 0.011683 0.009588 0.011482 -0.001806 0.003937 0.001131 0.010714 0.006506
1314 0.014676 0.012244 -0.004534 0.000282 -0.014631 -0.008224 0.003234 -0.007305 -0.009115 -0.002327 0.011334 0.008548 0.016720 -0.013436 -0.011348 -0.009095 0.010744 -0.003976 0.012313 0.009644 0.002878 -0.003060 -0.003977 0.003681 -0.006346 0.000540 0.009644 0.011643 -0.014969
1482 -0.008722 0.010695 -0.006178 -0.012764 -0.012474 -0.004514 0.010449 -0.000159 -0.001641 0.011619 -0.005051 0.006051 -0.006979 0.000418 -0.011777 -0.006702 -0.000608 0.008665 -0.005135 -0.005563 -0.010219 0.001604 0.008417 0.017222 0.000414 -0.015859 -0.005648 0.008371 -0.004885
1353 0.007479 -0.011514 -0.001334 0.014831 -0.001187 -0.015664 -0.001217 0.002292 0.014927 -0.010275 -0.003020 0.015061 -0.010775 0.008237 0.009718 0.014809 -0.011463 0.003188 -0.012948 -0.003262 -0.007327 -0.007592 -0.013437 0.013575 -0.007456 0.011396 -0.009252 -0.001362 -0.001244
1239 -0.000305 0.001219 -0.003769 -0.014174 0.015651 0.003601 -0.009387 0.013585 -0.009143 0.016923 -0.000346 0.006602 -0.014617 -0.012907 0.003465 0.017181 -0.002992 0.001398 -0.012668 0.009584 -0.004341 -0.010651 -0.014551 0.008145 -0.011763 0.003450 -0.016638 0.013789 -0.010498
1228 -0.012855 -0.012897 0.011948 0.016886 -0.010775 0.013631 0.004980 -0.011763 0.003472 0.016977 0.012979 -0.007241 0.000002 0.003319 0.006498 -0.008363 0.012636 -0.015165 -0.015735 -0.003714 -0.016377 -0.001828 -0.008355 -0.014884 0.007954 -0.001160 0.015037 -0.013495 -0.003655
2126 -0.015145 0.003798 0.010746 -0.014037 -0.016974 -0.010543 -0.002852 -0.014241 0.007752 -0.004872 -0.016300 -0.001725 0.007274 0.005731 -0.007533 0.009025 0.015380 -0.004936 0.006717 -0.007815 -0.009528 0.005090 0.012756 -0.004595 0.014465 0.014525 0.003656 -0.000018 0.014107
1145 -0.003148 -0.017022 -0.006864 -0.016793 -0.015174 -0.011497 0.004668 -0.002813 -0.004610 -0.009259 -0.010135 0.011943 -0.008285 -0.007034 -0.006030 0.016220 0.016699 -0.000557 0.014211 -0.013625 -0.011454 -0.001035 -0.001607 0.007588 0.014928 0.002172 -0.001248 -0.008642 0.000313
1517 0.000837 -0.002106 -0.005743 0.010280 0.014182 -0.002307 0.006156 -0.003098 -0.004110 -0.002844 -0.010864 -0.015095 -0.013181 0.013819 0.005862 0.008159 -0.002035 0.004859 0.012547 0.008309 0.005984 0.008124 -0.002442 0.013197 0.010101 -0.017210 0.009009 -0.012459 0.014636
1855 0.002015 0.011348 -0.012297 -0.005234 0.002727 0.003609 -0.011305 0.015382 0.012565 -0.012086 -0.003980 -0.011194 -0.015813 -0.007431 0.013386 0.003658 0.002500 0.009167 0.002381 0.011084 -0.003227 0.000912 0.008139 -0.008755 0.007342 0.014087 -0.010524 0.003880 -0.010486
1187 -0.006991 -0.004559 0.012422 0.009831 -0.005142 0.004408 0.003821 0.001759 0.009611 0.004135 0.014595 0.008536 0.015212 0.000481 0.005860 -0.011209 0.008312 0.000101 -0.007930 -0.000923 0.011292 -0.000118 -0.016041 -0.015485 -0.002499 -0.007499 -0.008700 0.016132 -0.009202
1078 -0.015789 0.013004 -0.004153 -0.006763 0.013313 0.012756 -0.010681 -0.008369 0.001017 -0.014405 -0.001591 -0.000855 0.010983 0.010798 0.005648 -0.012763 -0.002103 0.001352 0.009238 -0.005078 0.009725 0.008186 0.003991 -0.002951 0.010171 0.014172 0.014410 -0.012705 0.017211
1250 -0.016397 -0.009434 0.015896 0.003574 -0.010419 0.011855 -0.009859 0.006610 0.010768 0.013798 -0.008708 -0.006696 -0.005014 -0.001867 0.006683 0.014362 0.011475 -0.012789 0.005896 0.016363 0.005069 0.008003 0.007613 -0.000715 -0.005563 0.001021 -0.012573 0.006611 -0.002870
1574 0.006316 0.005517 -0.011136 -0.014868 0.000326 0.011662 0.007242 -0.012059 0.011217 0.010524 0.016104 0.000271 -0.009955 0.003053 0.003126 0.010818 -0.010983 -0.015294 0.007948 -0.015832 -0.007650 0.000882 -0.015826 0.016424 -0.013161 -0.011573 0.007704 -0.003337 -0.001905
1754 0.006887 0.014171 0.010809 0.002181 0.013455 0.017141 0.006646 -0.004259 -0.014975 -0.012506 -0.010062 -0.007000 -0.010925 -0.015013 -0.014399 -0.014701 -0.016390 0.004192 0.003270 0.008347 -0.016558 0.005122 -0.006894 -0.014445 0.009885 0.016942 -0.003293 -0.014498 0.001878
1311 0.011491 0.005166 0.009770 -0.015452 -0.012571 -0.001111 0.017053 0.015550 -0.015626 0.013238 0.016125 -0.007076 -0.011133 -0.008821 0.015209 -0.007601 0.002525 0.016108 -0.009468 0.001908 -0.007580 0.009990 0.002775 0.005595 0.000194 -0.011410 0.000663 0.014141 0.004424
1397 -0.003367 -0.006483 0.013053 -0.014723 -0.004680 0.003648 -0.004298 -0.013687 0.004107 -0.005219 0.013209 -0.000416 -0.015728 -0.002568 -0.006872 0.014706 0.007897 0.005343 -0.016400 0.008642 0.015337 0.014094 -0.011970 0.015535 0.016561 -0.008134 -0.015304 -0.001945 -0.017233
1375 0.015152 0.014738 0.002303 -0.002313 0.004361 0.011009 -0.007875 -0.010541 -0.002670 0.004274 0.017232 -0.007979 -0.014019 0.005942 -0.012189 0.001535 0.012358 0.009081 -0.007047 0.003327 -0.001163 0.013783 -0.014934 0.012608 0.012666 -0.008654 0.001585 0.012292 0.013684
1623 -0.005442 -0.009419 -0.004303 0.002939 0.011944 0.012480 -0.011089 0.011844 -0.015382 -0.013354 -0.008149 0.002502 0.016271 -0.003651 -0.013815 0.003582 0.001643 -0.014406 0.016911 0.007803 -0.011358 -0.012481 -0.005425 -0.006450 0.012694 0.014735 -0.007295 -0.014353 -0.014983
1104 0.007116 -0.002733 0.010109 -0.009207 0.011953 -0.009746 0.012959 -0.002728 0.000261 0.014070 0.004367 0.014928 -0.002716 -0.009195 0.000014 0.006445 -0.004948 -0.006408 -0.002367 0.007711 0.004885 0.002472 -0.008794 0.003371 -0.003526 -0.008020 -0.015194 -0.005708 -0.008369
1267 0.008930 0.006872 0.012272 -0.004664 -0.009637 0.006408 0.003613 0.015413 0.009088 -0.011706 0.014046 0.014696 -0.000917 -0.014607 0.004907 0.015409 -0.007644 0.002181 -0.003405 0.016928 -0.004008 -0.003156 -0.004865 0.015971 -0.000970 0.015187 -0.012248 -0.011631 0.016750
1508 0.012269 0.001121 0.014451 0.012748 0.015017 0.014727 0.005377 -0.006240 0.002786 0.008215 0.011830 -0.017061 -0.009775 -0.002467 0.002443 0.002418 -0.004933 -0.001644 0.000285 0.005658 0.007827 -0.001295 0.013468 0.008528 0.013234 0.005551 -0.008260 0.011973 -0.008490
1582 0.012999 0.013021 -0.010769 -0.013559 0.017041 -0.002543 -0.001946 0.007343 -0.000581 -0.002961 -0.002036 -0.002296 -0.007034 0.005887 0.004166 -0.007730 -0.001790 -0.000693 -0.000008 -0.001790 -0.012783 0.013331 -0.011058 -0.011964 -0.009837 -0.000399 -0.001207 0.014434 0.000409
1405 0.013131 -0.009949 0.001000 -0.001150 -0.009986 0.008992 0.003207 0.010623 0.001787 0.002070 0.013114 -0.000535 -0.010363 0.012363 0.006122 -0.012622 -0.004979 0.014176 -0.000621 -0.010794 0.007132 0.006053 0.016437 0.003096 -0.015331 -0.007435 -0.002034 0.011229 -0.013064
1319 -0.000399 0.015407 -0.000548 -0.000778 0.010269 -0.006785 -0.016467 0.006112 0.013324 -0.004247 -0.015546 -0.013663 0.011391 0.005515 0.003099 -0.012133 -0.009253 -0.002386 0.015693 0.011734 0.014657 0.016225 -0.004354 -0.007864 -0.009878 0.009489 -0.004078 0.015035 0.007291
1656 -0.013734 0.015958 0.011711 -0.003908 0.014460 0.007285 -0.004376 -0.016324 -0.010560 -0.003496 -0.007450 0.012645 -0.009977 -0.001105 0.007629 0.007777 -0.009923 0.000866 -0.009768 -0.012169 0.007069 0.000975 -0.012946 -0.008403 0.008150 -0.011403 -0.009788 -0.012924 0.005504
1887 0.002322 0.015098 -0.008568 -0.004390 -0.005931 -0.014284 0.010187 0.009489 0.002204 0.009265 -0.015057 0.013557 -0.007546 0.014214 -0.010657 -0.001088 -0.011367 -0.006456 -0.007488 0.004478 -0.005555 -0.013701 -0.013878 -0.004671 -0.009100 0.010222 0.000149 -0.008503 -0.002072
1155 0.001716 -0.016837 -0.011235 -0.015614 -0.003607 0.009565 0.011247 -0.012912 0.002880 -0.014897 -0.008444 -0.003636 0.010347 0.000735 0.003806 -0.014049 -0.009606 -0.010807 0.010657 -0.009269 0.014735 0.005526 0.005173 -0.002181 0.004266 0.012644 0.004791 0.003717 -0.011347
1350 -0.004029 -0.012507 0.014293 -0.010109 -0.012558 0.008302 -0.002523 -0.001251 0.006006 0.003788 -0.000563 -0.015150 0.009185 -0.002019 -0.006019 -0.005025 0.001736 0.008353 0.007288 -0.008580 -0.004985 0.008436 -0.015115 -0.016601 0.002417 -0.011591 0.011134 -0.012773 0.001526
1249 -0.014597 0.014096 0.004151 0.014017 0.012008 0.005015 -0.000624 0.004418 0.004435 0.011846 -0.011759 -0.016502 -0.000042 -0.001154 -0.012745 0.007527 -0.014819 -0.009914 -0.016227 -0.008068 0.007184 -0.011009 -0.013019 0.002253 0.013569 -0.005836 -0.001295 -0.004532 -0.007580
1268 -0.005664 -0.005544 -0.007925 -0.007417 -0.001438 -0.012695 0.000795 0.006376 -0.007464 -0.011313 -0.008682 0.010511 -0.011343 0.005462 0.006258 0.008702 0.013065 0.015993 0.013780 0.003905 -0.001856 -0.008620 0.002404 0.002169 -0.013374 -0.002441 0.016035 0.004797 0.002320
1251 0.011254 0.004861 0.002260 -0.001906 0.014987 -0.006760 -0.006703 -0.011912 0.013928 -0.007440 0.001305 -0.006815 0.000496 0.003975 0.000125 0.006613 0.002606 -0.008646 -0.014566 0.000628 0.012975 0.010045 0.014960 0.013646 -0.004816 0.001427 -0.001251 0.005995 -0.015637
1906 -0.000052 0.015047 0.014824 0.014675 0.010248 0.009765 -0.011732 0.016198 -0.001781 -0.013084 0.006687 0.002072 0.004701 -0.009958 0.015253 0.011893 -0.016293 -0.010022 -0.007557 0.002297 -0.012962 0.006345 0.003695 -0.015283 0.014631 0.009550 -0.004545 -0.006593 -0.000548
1611 0.013305 -0.009965 -0.008790 -0.004496 0.003928 -0.014989 -0.010591 0.007410 -0.004966 -0.016892 0.005667 0.012360 -0.015320 -0.014799 -0.002937 0.008634 -0.013127 -0.015375 0.009743 0.005421 0.003358 0.006895 0.013225 -0.013013 0.010296 -0.000943 -0.008329 -0.000337 0.009286
1430 -0.000123 -0.002007 0.007709 -0.004385 -0.013720 -0.005054 0.015342 -0.000061 0.001327 0.006672 0.006281 0.010520 0.011805 -0.003637 -0.011856 0.012815 -0.013859 -0.011063 0.015904 -0.008153 0.017236 0.006981 -0.014307 0.000966 0.014541 0.010394 0.017038 0.012891 0.005639
1594 0.004488 0.004214 0.016659 0.013353 0.000443 -0.009809 -0.016103 -0.003702 -0.001382 -0.017039 -0.008939 -0.004864 0.006013 -0.004355 0.000229 -0.017008 0.017132 0.015274 0.004763 -0.015679 0.007346 -0.008180 0.002721 -0.005421 -0.010759 -0.001219 -0.006921 0.016075 -0.007276
1143 0.008474 0.015572 0.005135 -0.016189 -0.013138 -0.005635 -0.014715 -0.010841 0.013692 0.014679 -0.002767 0.010843 0.006529 0.004153 0.008420 -0.009232 0.004407 0.009902 -0.014828 -0.005518 -0.001357 0.006567 -0.014334 -0.010665 0.012592 -0.002096 0.006674 -0.004988 -0.007827
1531 -0.003466 0.000567 -0.007817 0.012455 -0.005985 -0.016639 -0.004524 0.014050 0.003414 -0.001946 0.012928 -0.017002 -0.006876 -0.016626 0.016057 0.014882 -0.013923 0.001129 0.005613 -0.006766 -0.012309 -0.002180 -0.009223 -0.005640 -0.013568 -0.012912 -0.014548 -0.006594 -0.010631
1168 -0.003344 0.011602 -0.011611 0.014540 -0.006569 0.006044 0.012358 -0.002170 0.012277 0.010007 0.011513 0.017129 -0.008148 -0.003879 0.012100 -0.007136 -0.011591 -0.003738 -0.009219 -0.008361 0.015946 -0.000494 -0.012790 -0.005591 0.012113 0.006800 0.015961 0.002453 -0.008439
1813 -0.015279 0.002365 -0.015211 0.000729 0.017215 -0.011820 0.015042 0.017103 0.010430 0.005391 -0.006495 0.007364 0.003817 0.000378 -0.009537 0.002156 0.011626 -0.014245 0.015326 -0.010651 -0.005558 -0.011798 -0.002650 -0.014517 0.014087 0.001574 -0.015124 -0.009568 0.009220
1339 0.013865 0.011002 -0.002129 0.013646 0.003702 -0.013214 -0.003693 -0.007625 0.004720 0.002645 0.003404 -0.016029 -0.006780 -0.010191 0.001383 0.008967 -0.005778 -0.004103 -0.010071 -0.004346 -0.003358 -0.002231 0.002964 -0.007349 -0.013612 -0.011074 -0.005427 -0.003098 0.002937
1701 0.000276 -0.007194 0.004435 0.014023 -0.006641 0.002449 0.009996 0.011794 0.002005 0.013663 0.003964 0.007574 -0.006436 0.007151 -0.015223 -0.008227 0.004515 -0.003791 0.004425 -0.003845 0.006830 0.000122 0.002983 0.008475 0.004623 -0.003922 0.012248 -0.008192 0.010459
1077 0.005869 -0.004411 0.005609 -0.010037 0.006620 0.008397 -0.000325 0.015676 -0.012082 0.007223 0.004043 0.001605 0.011658 0.000347 0.005203 -0.000786 -0.012404 0.005667 -0.011469 0.003978 0.016732 -0.016516 -0.005958 -0.014208 0.000180 -0.005396 -0.000290 0.012870 -0.013570
1581 -0.015279 0.016071 0.013781 0.016178 -0.016599 -0.003254 -0.006775 0.011281 0.017097 0.006965 0.008127 0.007159 0.015688 -0.016800 -0.008003 0.015140 -0.010939 0.000071 -0.010616 -0.000243 0.009620 0.017083 0.011884 -0.014687 0.001286 -0.015736 -0.012658 0.011212 0.013224
1463 0.003849 0.010304 0.005085 0.009343 0.013268 -0.014253 -0.006398 0.003216 -0.011967 -0.009108 0.016269 0.013261 -0.011684 -0.005279 0.011620 0.000697 -0.009516 -0.012604 0.008081 -0.016841 0.001157 0.009587 -0.015177 -0.001723 -0.015163 0.016378 -0.005935 0.012722 0.011089
1090 -0.006735 0.006025 0.006247 -0.004287 -0.005837 0.013114 -0.003035 0.006913 0.011987 0.005367 -0.001984 -0.004897 0.005264 -0.006325 0.010286 0.013243 -0.012731 -0.003496 0.005023 0.008813 0.006185 0.004818 -0.000320 -0.006644 -0.007557 -0.014454 -0.015919 0.004992 -0.009263
1373 0.005666 0.010925 -0.008600 -0.009245 -0.007976 -0.006187 -0.010364 0.013763 0.008224 -0.008691 -0.009130 0.015931 -0.003584 -0.009366 0.012896 0.000752 -0.008557 0.005837 -0.003656 0.012790 -0.003484 0.013782 -0.011105 0.004697 0.011215 -0.003710 0.002709 0.016943 -0.001154
1238 -0.008551 0.008987 0.012407 -0.004441 0.010802 0.008457 0.004871 0.015230 0.016057 0.008693 0.015615 -0.001813 0.008383 0.012245 -0.003510 -0.004967 0.016346 0.013466 -0.013446 0.009281 -0.004837 0.000103 0.008347 0.012036 -0.001791 0.006143 0.010252 -0.017113 0.012526
1489 0.009135 0.004998 0.011317 -0.013001 0.011845 0.000992 0.013668 0.012887 0.008839 -0.010245 -0.003145 -0.011344 0.004525 -0.006747 0.012360 0.002578 -0.008159 0.007447 0.015027 -0.015708 0.005229 0.006024 -0.010343 -0.005699 -0.007207 -0.006534 -0.000189 0.015949 -0.011783
1757 0.015252 -0.001403 -0.015832 0.014106 -0.010881 0.002670 0.003558 -0.016358 -0.012794 0.003852 0.003032 0.015973 -0.002584 0.005743 0.013419 0.014885 0.006162 -0.007726 -0.000460 -0.002819 -0.006154 0.010684 -0.002879 0.004440 0.013557 -0.006898 0.005359 -0.004356 0.009253
1062 -0.014243 -0.013058 -0.014747 -0.006519 0.014373 0.007908 -0.008551 0.016265 -0.000705 0.015661 0.013698 -0.000498 0.013042 -0.008675 0.006755 -0.005952 0.007121 0.006857 0.009261 -0.014757 -0.006932 0.016625 0.007992 0.012871 0.009261 0.006559 0.005234 0.013745 -0.006608
1193 -0.010941 -0.005523 -0.012623 -0.000323 0.017100 0.010723 -0.008624 0.000493 -0.012980 -0.001971 0.004428 -0.002911 0.013500 0.003428 -0.008412 -0.004298 0.015261 0.004258 0.011162 0.015610 0.000069 -0.011577 0.003618 -0.009709 -0.002631 -0.000112 0.002202 0.006810 0.017230
1944 -0.006264 -0.006025 -0.004016 -0.003150 0.012246 -0.004654 0.012903 0.016393 0.006192 0.012521 0.008690 -0.009682 -0.013810 0.004531 0.000134 0.015043 -0.001438 -0.000378 0.015405 -0.001012 0.001727 -0.002239 -0.010040 0.004042 0.011942 0.012142 0.017143 -0.013225 0.005417
1196 0.007475 0.009991 0.010075 -0.002607 -0.002970 -0.004005 0.009688 -0.000448 -0.012464 -0.008660 -0.013840 0.001971 -0.004142 0.013711 -0.012949 0.001027 -0.000985 0.004528 0.013032 -0.000816 -0.005234 -0.007542 -0.013560 -0.015593 -0.016210 -0.005008 0.017069 -0.012373 0.003990
1120 -0.000032 -0.001999 0.010569 -0.013447 0.004754 -0.005177 0.009320 -0.014969 -0.011584 -0.014978 0.002059 0.001189 -0.015712 -0.011818 -0.013713 0.000596 -0.010486 0.001457 0.009155 -0.011391 0.004459 0.008099 -0.009917 -0.006435 0.004503 0.004881 -0.006338 0.007928 0.013714
1696 0.000009 -0.015998 -0.017208 0.011486 0.004778 -0.009357 -0.008048 0.006153 0.013531 -0.001043 -0.017104 -0.006761 -0.016955 0.011462 0.003525 0.011837 -0.008894 0.011171 -0.003797 0.015207 -0.002931 0.000492 -0.016520 -0.010165 0.007608 -0.009717 -0.004633 0.006038 -0.009091
1542 0.000990 0.003734 0.014381 -0.000813 0.016704 0.009440 -0.004315 -0.001719 0.001125 0.015858 0.005930 -0.005475 0.000676 -0.013156 0.011207 -0.005396 0.005848 -0.010921 0.005221 0.012272 -0.015785 0.013398 0.007884 0.001082 -0.002988 -0.004197 -0.000262 -0.015156 -0.011961
1209 -0.013976 -0.000531 0.010180 0.001966 -0.010451 0.008298 0.009755 -0.010837 -0.005504 0.004908 -0.012923 0.001792 0.016626 0.009629 0.001707 -0.011762 0.015610 -0.011215 0.009238 -0.003762 -0.005732 0.006020 -0.017003 -0.010557 0.000319 -0.014585 0.011690 0.004140 -0.010869
2108 0.015093 0.011736 0.000443 -0.001576 0.003109 -0.002252 0.015548 0.003814 -0.015647 0.015413 0.014591 -0.016756 0.010326 -0.016043 0.005911 -0.014098 0.016451 0.012492 0.002027 0.005542 0.006507 -0.007697 0.015382 0.006559 -0.011219 0.010504 -0.014500 -0.011705 -0.010088
1608 0.013751 0.001070 0.005455 0.011009 -0.002994 0.003986 -0.011586 -0.014321 -0.010809 -0.015614 0.016444 -0.014146 -0.013274 -0.011082 -0.011723 0.002812 0.008547 0.016974 -0.005366 0.005067 -0.006098 0.005194 0.016354 0.009066 -0.011417 -0.002054 0.006165 -0.001887 0.002318
2184 -0.002707 -0.013807 0.009955 0.002281 0.006069 -0.002876 -0.000716 -0.002428 0.003794 0.008555 -0.012697 0.002665 -0.008221 -0.003026 0.000019 0.014396 0.002787 -0.005607 -0.011277 0.000024 0.010190 0.015614 0.008691 -0.017123 -0.001115 0.000149 -0.003965 -0.010685 -0.002086
1132 0.016076 -0.012054 -0.001102 -0.009679 0.001956 -0.003956 0.014617 0.012433 -0.012836 0.002338 -0.013248 0.000941 0.014137 0.015552 -0.007228 -0.001113 -0.014351 -0.004794 0.002745 0.006357 0.013061 0.008240 -0.004747 0.006425 -0.007410 -0.008995 -0.003572 0.014953 0.012610
1511 0.000476 0.003282 0.010230 -0.013605 0.003849 -0.009344 -0.006063 -0.007608 -0.012874 0.003118 -0.009672 -0.004434 0.007284 0.007062 0.014927 0.015248 -0.016474 0.001947 0.008745 -0.001257 -0.007005 0.006420 -0.008961 -0.000121 -0.008344 0.005605 -0.001895 0.009475 -0.003204
1127 0.003146 -0.010080 0.000402 0.006617 0.002673 0.007868 0.010641 -0.002874 0.010755 -0.002652 0.002173 -0.010612 0.013301 0.016093 -0.016439 0.016824 0.001896 0.012041 0.015758 0.004638 -0.015174 0.014836 -0.013660 -0.002346 -0.003334 0.014900 -0.014174 0.007692 -0.017195
1248 0.014067 -0.013081 -0.004335 -0.004184 0.016889 0.000858 0.016740 -0.009890 0.008133 0.011837 0.012059 -0.010339 0.005242 -0.000909 -0.000140 0.009559 -0.011035 0.007094 -0.013071 0.011475 0.008942 -0.004999 -0.003876 -0.010499 -0.009691 -0.008467 -0.002720 -0.012753 0.015747
1182 0.014262 0.013587 -0.015353 0.008491 0.002588 0.009651 0.012601 -0.012475 -0.003275 0.015863 0.010565 -0.000437 0.011169 0.011042 0.000873 -0.002063 0.013125 -0.002849 -0.005835 0.011756 -0.011431 0.007152 -0.014605 0.004575 -0.014019 -0.001385 0.017073 -0.013646 0.010237
1111 0.009016 0.011153 -0.007994 0.016593 0.011730 0.015024 -0.014465 0.008363 -0.010873 -0.016292 0.009565 -0.012929 -0.009166 0.004453 -0.002327 0.012842 -0.004342 0.005900 -0.004188 0.006513 0.014144 0.003850 -0.000463 0.011228 0.001358 0.009965 -0.012090 0.009604 0.005894
1298 -0.007128 -0.015547 -0.000785 0.006237 0.007095 -0.001041 -0.011291 -0.016032 0.007288 -0.005594 -0.010339 -0.013088 0.002770 -0.011701 -0.012199 0.010484 0.013415 0.010132 -0.010542 0.011471 -0.004545 0.007147 -0.000226 -0.004687 0.008684 0.007777 0.003541 0.009916 0.003902
1498 0.003449 0.005186 0.013694 0.011061 0.005163 -0.014359 0.005591 -0.009580 0.001209 0.002331 0.009349 0.011225 0.004092 0.001367 -0.013867 0.010864 -0.006809 0.010318 -0.005004 -0.012742 0.007000 0.011583 -0.013583 0.004609 0.004567 0.012200 -0.006696 -0.001016 -0.004533
1061 0.007136 -0.013327 -0.000130 0.003780 -0.003724 -0.016006 -0.003228 -0.015143 0.004810 0.016044 0.014588 -0.011732 -0.009637 -0.008475 -0.006394 0.003208 -0.003456 0.009439 0.015279 0.002267 0.005551 0.007620 0.014787 -0.002935 0.002442 0.002165 0.003918 0.016353 0.001560
1017 0.015712 0.013572 -0.006233 0.001976 -0.005145 -0.007190 0.013921 0.011348 0.013335 -0.008827 0.007042 0.009835 -0.013198 -0.004641 -0.008721 -0.012995 0.015045 -0.001130 -0.000598 0.001176 -0.011405 -0.010322 -0.009180 -0.001915 -0.008329 -0.011455 0.000039 0.007451 0.012226
1679 0.016040 0.016945 -0.015617 -0.002316 -0.009712 0.014554 -0.005218 0.001233 -0.013334 0.011621 -0.005934 -0.000816 -0.011404 0.006378 -0.002244 -0.005276 -0.003380 -0.007302 0.013276 -0.014127 -0.000334 -0.009925 0.004125 -0.011733 -0.010077 -0.002585 -0.009607 -0.010894 -0.010671
1242 0.007410 -0.005233 0.015522 -0.000766 0.002481 -0.015614 -0.012259 0.007191 0.005845 0.011990 0.006650 -0.001563 0.000334 0.006146 0.000865 0.000698 -0.007229 0.013522 0.004986 0.007843 0.007512 0.012289 0.007584 -0.004588 0.002610 -0.011239 -0.006213 0.004043 -0.000064
1668 0.012998 0.011559 -0.015986 0.014350 -0.008190 0.000677 0.015298 -0.003542 -0.011971 -0.000050 -0.016155 0.010105 -0.012649 0.005265 -0.002426 -0.007196 -0.005553 0.004863 0.011876 -0.001972 0.009423 0.013390 0.007919 -0.016558 -0.011053 -0.004488 -0.011962 0.014696 0.016464
1116 0.003840 0.010964 0.006514 -0.002288 -0.013399 0.007888 -0.004452 -0.002185 0.016127 0.007011 0.003427 0.010323 -0.016795 -0.003885 0.006138 -0.002426 0.014810 0.007418 -0.008503 0.001475 -0.016732 0.010777 -0.011460 -0.007677 0.004382 0.005240 0.011703 0.010223 0.002040
1379 0.014066 0.006092 -0.006820 0.014915 0.009099 -0.007249 0.004790 -0.001124 -0.011960 0.016881 -0.002971 -0.016902 0.009825 -0.013543 -0.011828 -0.000593 -0.002264 0.006283 -0.012650 0.005169 -0.002285 -0.000689 0.001746 0.001916 -0.002743 -0.011389 -0.015722 -0.001324 0.002550
1470 0.000232 -0.012796 -0.004507 -0.006742 0.000836 0.008109 -0.004079 -0.011525 -0.002480 0.009862 0.011143 0.002790 0.001766 -0.007432 0.010402 0.014985 0.010408 -0.004778 0.006528 0.008434 0.004226 0.005581 -0.002145 0.001283 -0.007734 -0.003485 0.009500 -0.011329 -0.005288
1157 0.001775 0.016410 -0.006130 0.013137 0.015003 -0.007726 -0.013357 0.007924 -0.017154 -0.010653 0.006045 -0.009880 -0.008983 0.004487 0.010225 0.014777 -0.013437 -0.006733 -0.002230 0.007487 -0.004881 -0.000566 0.002636 0.014619 0.004304 0.013489 -0.015671 -0.012483 -0.008957
1337 -0.001275 -0.015442 0.014719 0.009473 -0.017114 -0.000699 -0.006933 -0.010051 -0.007581 -0.014909 0.016711 0.014656 0.000344 -0.016916 0.002236 0.016322 -0.013413 0.000481 0.015994 -0.015780 0.009848 0.007426 0.006849 -0.005774 0.000694 -0.015010 -0.009985 -0.015509 0.010252
1028 -0.002737 -0.011736 -0.007457 -0.015212 -0.002156 -0.004579 0.007979 -0.006823 -0.013593 -0.002740 -0.008414 -0.016715 0.013445 -0.000158 0.004947 0.016572 0.003376 0.008024 -0.001558 -0.005304 -0.009105 -0.004503 0.002909 -0.006419 0.016874 0.007616 0.006989 0.007055 -0.001063
1180 -0.014354 0.015012 0.004779 -0.000795 0.009564 -0.005738 -0.012371 -0.016178 -0.015796 -0.010214 0.004488 0.001351 -0.013348 0.000788 0.011232 -0.002823 0.006599 0.003396 -0.004868 -0.010978 0.006556 0.004653 0.000603 0.015343 0.006125 0.008291 0.009874 -0.014404 -0.011168
1660 0.015824 -0.002880 -0.008342 0.001029 0.007689 0.015929 0.012454 -0.017055 -0.012345 0.000640 -0.006819 -0.013566 -0.006462 0.017005 -0.017187 -0.008485 0.003981 -0.005161 0.012906 -0.015440 0.003899 0.006085 -0.006704 0.016099 0.012378 0.004165 -0.013586 0.014068 -0.013021
1087 0.004161 0.010224 -0.012946 -0.014241 -0.002467 0.012508 0.010851 0.002902 -0.013582 0.010067 -0.003682 0.009753 -0.006122 -0.002484 0.007669 -0.012443 -0.016258 0.012368 -0.010498 0.012368 0.015717 -0.000622 0.013110 0.008716 -0.003515 0.014357 -0.012403 0.004692 0.015579
1891 0.002263 -0.011368 0.012151 -0.015548 -0.011512 -0.002558 -0.013716 -0.003469 -0.009481 0.016689 -0.010361 0.012551 -0.011525 -0.016509 0.002035 0.010766 0.004495 0.009105 0.012593 0.001891 -0.003582 -0.014934 -0.004736 -0.005315 -0.006885 -0.012897 -0.011006 -0.001537 0.002215
1666 -0.012690 0.008598 0.001316 -0.005680 -0.010509 0.001234 -0.003244 -0.004396 0.001597 0.007041 0.002467 0.000666 0.007575 0.013440 -0.001570 0.001685 -0.013086 0.002638 -0.013227 0.000422 0.012823 -0.016579 -0.004066 0.000629 0.007504 0.012254 0.002371 0.012799 0.007747
1837 -0.001596 0.004190 0.014174 -0.006724 0.009851 -0.010729 -0.007299 -0.002915 0.010307 0.008428 0.004049 -0.001142 -0.011097 -0.002221 0.007137 -0.001801 -0.007699 0.006350 0.001995 -0.013667 -0.007826 0.016378 -0.014853 0.011692 -0.013807 0.016458 0.001277 -0.012872 -0.001503
1824 0.016759 -0.011497 -0.002893 -0.000707 0.011219 -0.007535 -0.015528 0.000098 0.009452 -0.012202 -0.013204 -0.004068 0.014632 -0.003328 0.014014 -0.012031 0.001298 -0.005187 -0.016755 0.003413 -0.006430 -0.011499 -0.014917 0.006809 -0.012800 -0.004283 0.009853 -0.007917 0.001511
1247 -0.002531 -0.002486 -0.008017 0.015914 0.013874 -0.013729 0.015186 -0.014268 -0.013238 0.009216 0.012547 0.010255 0.005868 -0.009815 -0.014017 -0.006917 0.013341 0.003371 0.012533 0.011257 0.013924 0.014454 -0.010257 0.002633 0.015771 0.014274 0.006118 -0.007857 0.004776
1161 0.001840 0.009572 0.011559 0.012227 -0.013713 -0.002128 0.013822 -0.004947 0.012554 -0.013174 -0.005859 -0.016368 -0.012242 0.012999 0.008669 0.007542 -0.008762 0.011061 -0.010241 -0.000851 -0.004667 0.005243 -0.004654 0.004518 -0.006175 0.006580 -0.007203 -0.000913 -0.014902
1204 -0.005261 -0.002297 -0.009685 0.013718 -0.013161 0.001699 -0.013354 0.007535 0.015883 -0.014007 0.003608 -0.014356 0.009572 0.002644 0.014058 -0.007850 0.004781 -0.008934 -0.015369 0.008055 0.004073 -0.007350 -0.012422 -0.006074 0.016636 0.010330 -0.003438 0.008415 -0.014692
1177 0.015454 -0.000444 0.005063 -0.007590 0.016325 -0.014796 -0.012534 -0.001911 0.002246 -0.006031 0.014388 -0.005132 -0.007113 -0.005898 -0.000011 -0.001002 0.008816 -0.002935 0.015796 0.006430 0.006771 0.002432 -0.009501 -0.010671 -0.003852 -0.012376 0.002499 -0.013357 -0.014259
1253 -0.014211 -0.002973 0.007741 -0.007225 0.006184 0.012349 0.015586 0.003753 -0.010286 0.009943 0.006059 0.009516 -0.014202 0.007309 0.001829 -0.005456 0.011426 -0.001531 0.006358 0.010456 -0.013335 -0.005320 -0.002847 0.014972 0.014224 0.016910 0.001881 0.015533 0.014645
1113 -0.013933 0.000999 0.004030 0.004016 0.005322 -0.003829 0.004835 0.016952 0.007743 0.004303 0.011260 0.014069 0.012112 0.016289 -0.007938 -0.006518 0.009246 0.005776 0.004211 -0.012396 0.001104 -0.006603 -0.001430 0.016345 -0.012393 0.009833 -0.013135 0.010645 0.015904
1230 0.011651 0.009723 -0.013540 -0.006981 -0.013252 -0.014606 0.003945 0.013476 -0.002710 0.009673 -0.016034 0.004181 -0.010270 -0.010160 0.003061 0.006065 0.014781 0.011032 0.010579 -0.002326 0.003492 -0.007536 -0.004799 -0.012336 0.000435 0.017228 -0.013361 0.001865 0.009405
1875 0.011169 0.006830 0.009091 0.004338 -0.001998 0.014374 0.010959 0.015513 0.008894 -0.003106 0.000151 0.009501 -0.002862 0.001559 0.003178 0.010074 0.014821 0.011307 -0.002772 -0.009401 0.011061 0.012805 0.013978 -0.017228 -0.000358 0.014893 -0.009787 0.009467 0.001989
1703 -0.008116 -0.012569 0.013154 -0.010429 -0.015145 0.003156 0.000255 -0.006731 -0.006138 0.013921 0.007213 -0.011385 -0.002995 0.014160 0.006516 0.004388 0.012974 0.017160 -0.004821 0.012013 -0.012546 0.009526 0.003818 -0.016152 0.010737 -0.008416 -0.013012 0.014266 -0.001354
1748 0.006412 -0.001642 -0.009479 0.000283 0.011513 0.000649 -0.011009 -0.003455 -0.014379 0.011496 -0.005006 0.013955 0.008889 -0.010671 -0.003896 -0.007527 0.008858 -0.007404 0.000430 -0.006210 -0.016908 0.003493 -0.015144 -0.013398 0.010982 -0.016410 -0.009081 0.002238 -0.001236
1364 -0.000510 -0.007262 0.008966 -0.015187 -0.013784 -0.016065 -0.001694 0.016755 0.009307 0.000552 -0.000177 -0.000066 0.001083 -0.014617 0.014587 0.010312 0.011459 -0.001959 0.003067 0.013389 0.014895 0.015299 0.007845 -0.001367 0.002725 0.011371 -0.010864 0.013889 0.007295
1335 -0.010954 0.008296 0.014572 0.016727 0.011704 -0.016265 -0.006204 0.003252 -0.006860 0.012652 -0.004931 0.002537 -0.013028 -0.008459 0.015358 -0.000240 -0.008148 0.001413 0.015367 -0.016533 -0.007190 -0.015725 -0.008774 -0.011655 -0.007473 0.004238 -0.009922 0.004233 -0.009916
1617 0.011467 0.006030 0.011101 -0.012505 0.004121 0.014544 0.009518 -0.016284 -0.007385 0.014158 0.006655 0.011194 0.005992 -0.006946 0.012469 -0.016143 -0.000653 -0.009555 0.015654 0.005153 -0.000421 -0.001586 -0.014110 0.012873 0.002715 0.007080 -0.011848 -0.015541 -0.004576
1057 0.003677 0.004252 0.006796 -0.012577 0.010970 0.008713 0.013613 0.002147 0.007382 0.001344 0.003936 -0.010897 0.007272 -0.004769 -0.011231 0.007005 0.010791 -0.016141 -0.006225 0.004704 -0.002660 0.007875 -0.015698 -0.002435 0.014751 0.009515 -0.010641 0.003519 0.010590
1269 0.010747 -0.015615 -0.014826 -0.004381 0.008188 -0.009612 -0.013267 -0.010900 0.014417 0.016385 -0.013613 -0.009172 -0.008529 -0.015014 0.006302 -0.009776 0.014210 -0.003278 -0.006112 0.016561 -0.015746 0.010327 0.006093 0.013235 0.014684 -0.001689 0.011100 -0.009720 -0.003624
2152 0.011035 0.010661 -0.001468 -0.006584 -0.002038 0.007017 0.002376 -0.016461 0.011105 0.001140 0.011887 -0.007756 0.010161 -0.008289 -0.009743 -0.008161 -0.017128 0.014711 0.015363 -0.013856 -0.016355 0.017123 0.012301 0.001622 -0.012860 -0.003683 0.015739 -0.004297 0.015873
2085 0.003880 -0.003118 -0.004547 0.014203 0.013602 -0.012470 0.008087 -0.007836 0.007130 0.011392 -0.001310 0.007026 -0.010902 -0.009190 -0.012932 -0.016510 0.010045 -0.015773 -0.015639 0.013721 0.012700 -0.013807 -0.006395 0.008879 -0.000804 -0.008264 -0.015864 -0.000439 0.003377
1835 -0.002435 0.005733 -0.007358 -0.008059 0.017078 -0.009868 0.007221 0.001242 -0.000600 0.014304 -0.001831 0.011252 -0.003515 -0.014266 0.017223 0.014454 -0.014547 0.016879 -0.007383 0.009140 0.002617 -0.015692 0.005249 -0.004259 -0.005007 -0.002233 0.000558 -0.000269 0.013298
1130 -0.004077 -0.014756 -0.015927 -0.017182 0.000830 -0.015545 0.009299 -0.012872 0.009987 0.000598 -0.016996 -0.007141 -0.011510 -0.012224 -0.007343 -0.002909 0.008373 -0.016860 -0.006487 -0.000954 -0.008250 -0.015303 -0.003701 0.013448 -0.005517 0.004739 0.014625 0.009164 0.010055
1285 -0.013411 0.013531 -0.008686 -0.000223 -0.010211 -0.003045 0.013495 -0.013532 0.011210 0.013967 -0.005746 -0.011585 -0.012524 -0.004461 -0.002597 0.013431 -0.006250 0.004120 -0.010760 0.000040 0.008778 0.005673 -0.011719 -0.016869 -0.008160 0.016708 -0.015180 0.010082 -0.013132
1540 0.001634 0.008671 -0.015985 -0.008705 -0.016243 -0.005929 0.010680 0.010165 -0.006930 -0.002635 0.015867 -0.003367 0.000252 -0.002441 0.003442 0.003815 0.016722 -0.013016 -0.015216 0.002581 0.014764 -0.013920 0.011665 0.009944 -0.000743 0.016502 -0.003265 0.005948 -0.010969
1048 0.001107 -0.012127 0.004390 0.005041 0.000849 0.009726 -0.004941 0.005663 0.015697 0.007961 -0.002552 -0.004167 0.009775 0.001618 0.005507 -0.014719 -0.005055 0.010839 0.009936 0.005218 0.011773 -0.012797 0.010646 0.009145 -0.005755 -0.009027 0.016096 -0.008265 0.014270
1290 -0.010907 0.011808 -0.015234 0.003775 0.006487 -0.001914 -0.003558 -0.008192 0.012496 0.003753 -0.009960 0.006082 0.012264 -0.000201 -0.004749 -0.012776 -0.009922 -0.007076 -0.000119 -0.016818 -0.007632 -0.005755 0.012536 0.009999 -0.009922 -0.001879 0.010836 0.010447 0.005823
1645 0.006693 -0.015157 -0.007614 0.014605 -0.004208 -0.006931 -0.013024 -0.005513 0.014580 -0.006215 -0.007276 0.011990 -0.011902 -0.006898 -0.014326 0.009484 -0.010820 -0.015578 -0.003656 -0.012424 -0.008541 0.016584 0.004386 0.011416 0.003296 0.009039 0.001761 0.009389 0.015158
1499 0.013615 0.005203 -0.011705 -0.002109 -0.015831 -0.002389 0.003354 0.000302 -0.002958 0.003055 0.011090 0.001310 -0.003847 -0.010830 0.004458 -0.004247 -0.010840 0.014251 0.015001 0.009225 0.016786 0.000811 0.002729 -0.002670 0.012938 -0.005291 -0.011913 -0.012893 0.007217
1160 0.002368 -0.015080 0.007726 0.008596 0.010066 0.016519 0.005397 -0.003967 -0.010063 -0.005378 -0.009004 0.010307 0.000983 0.014367 0.001678 -0.001366 -0.009740 -0.005070 0.001295 -0.003488 -0.010670 -0.010675 -0.001234 0.007675 0.015772 0.014879 -0.013934 0.007868 0.012222
1785 -0.016167 -0.015095 0.016886 0.011591 0.001310 0.008321 0.000667 0.004967 0.005811 -0.005553 0.008159 0.009292 -0.002115 0.003152 0.013947 0.010750 0.008647 0.004310 0.001199 0.000052 0.016033 -0.003655 0.000963 0.008343 -0.011671 -0.012915 -0.002118 0.004310 0.007594
1338 -0.016384 0.003783 0.008740 -0.002095 0.012109 0.010827 0.007397 0.000350 0.016154 -0.008763 -0.001959 0.010735 0.016224 0.011270 0.015519 0.011442 0.011480 -0.012091 -0.000179 0.010436 -0.007107 -0.016578 -0.003181 -0.016108 0.014802 0.001568 0.012866 -0.005173 -0.008958
1632 0.003534 -0.007874 0.010278 -0.014213 -0.012362 -0.011229 0.002797 -0.007269 0.007794 0.011978 -0.013921 0.011414 -0.009052 -0.001155 -0.016193 0.014050 0.006223 -0.001786 0.005951 0.012784 -0.008988 -0.012087 0.004926 0.013743 0.001220 0.011128 0.004498 0.014708 0.006632
1747 0.007986 -0.000207 0.001079 0.005289 -0.001578 0.006143 0.001695 -0.001357 0.016701 0.012799 -0.012223 -0.010845 0.003759 0.002503 -0.016537 0.013796 -0.001250 -0.003252 -0.014439 -0.011920 -0.010512 -0.016029 0.003491 -0.001557 -0.013748 0.002510 0.000630 -0.010197 0.002222
1411 -0.004232 0.009395 -0.001384 0.007442 -0.001540 -0.001022 -0.009201 0.011963 0.002605 -0.002410 -0.015792 -0.005920 0.014453 0.005878 0.005766 -0.016162 0.016679 -0.014614 -0.007569 0.013707 0.001675 0.004600 0.006903 0.012561 0.011779 -0.006857 -0.013520 -0.009915 -0.015346
1025 0.011529 -0.007772 0.015819 -0.011276 -0.007509 0.011070 0.008318 0.017119 0.009228 -0.009766 -0.010718 0.016518 -0.013618 0.015716 0.006896 0.003708 0.004324 0.006322 -0.012293 -0.016517 -0.011120 0.015403 -0.014307 0.007610 -0.007070 -0.007541 0.009433 0.001194 0.009637
1388 -0.016433 -0.014099 -0.004679 -0.008665 0.007519 0.003804 -0.007494 0.012712 -0.013949 0.004955 -0.014786 -0.015335 -0.006176 0.014586 0.001849 -0.001322 0.002734 -0.012389 -0.001236 0.016681 -0.011757 0.002726 0.003494 -0.010047 -0.007348 -0.012328 0.002076 -0.010882 0.002543
1006 0.013926 -0.015335 -0.003801 0.003870 0.011276 -0.008146 0.002791 0.006440 0.007856 -0.014005 0.013305 -0.016824 -0.009667 0.000091 0.003434 -0.008820 -0.012905 -0.011123 -0.012915 -0.007575 -0.003430 0.000605 -0.013949 -0.011947 0.012260 -0.004854 -0.009186 0.008469 -0.004298
1152 -0.017119 0.008483 0.000333 -0.002474 -0.013188 0.009734 -0.008936 -0.009651 0.006330 -0.002625 -0.007901 -0.008683 -0.009477 0.010763 -0.003052 -0.006603 -0.007384 0.006143 -0.008341 -0.015388 0.014308 0.005627 0.015524 0.016442 0.011448 0.008184 0.010792 0.008688 0.001941
1458 0.009979 0.004603 0.008691 0.014825 -0.014027 -0.013404 -0.011764 0.009538 -0.015640 0.010654 -0.010877 0.003707 -0.014690 -0.009893 -0.000413 -0.003042 0.004104 0.000863 0.002602 0.000270 0.001480 0.012335 -0.000799 0.009803 0.011799 -0.011149 0.001466 0.009326 0.010785
2071 0.010812 0.007535 0.004379 0.012332 -0.005671 -0.009990 -0.012150 -0.013838 -0.013630 0.015705 -0.002423 -0.013809 -0.009276 0.014687 0.017215 0.016245 0.007464 0.009170 -0.013766 0.013291 0.016939 -0.007818 0.003502 -0.000959 -0.006186 0.006985 -0.006611 -0.002405 -0.012810
1690 -0.012206 0.009453 0.004465 -0.005807 0.006173 -0.014485 -0.010489 0.009111 0.014139 0.008515 -0.016545 -0.011891 -0.000926 0.007906 0.016699 0.010198 0.008697 -0.015163 -0.007427 -0.001718 -0.000613 -0.010139 -0.014364 0.005964 0.005493 0.011472 -0.003545 -0.006242 -0.015636
1447 -0.011489 0.009966 0.003773 -0.013883 -0.011365 -0.010332 0.009071 0.003511 -0.010895 -0.008957 -0.007808 -0.000885 -0.011208 -0.011547 0.010669 0.009536 -0.007825 -0.011493 -0.013729 -0.010606 -0.011582 0.017182 -0.000526 -0.000978 0.004614 0.007361 -0.003194 -0.000532 0.007864
1237 0.010626 -0.000124 -0.012799 0.011306 -0.007745 -0.008898 0.002935 0.003790 -0.001151 0.014653 0.004494 -0.005100 0.016049 -0.015662 0.010979 -0.002834 -0.007148 0.011504 0.015357 0.015024 0.002148 0.009140 0.016053 0.006135 0.004545 0.016956 -0.017080 -0.007274 0.010060
1312 0.014589 0.008489 -0.015955 -0.014611 -0.013418 0.009896 -0.006911 -0.013890 -0.002530 -0.016660 -0.001773 -0.015666 -0.003233 -0.013947 0.015441 -0.005006 -0.007858 -0.007765 0.007633 -0.016562 0.005311 0.005196 0.016827 0.005304 -0.003719 0.013382 -0.000284 0.001815 0.000552
1213 -0.007918 0.016797 -0.009253 -0.004202 -0.005069 -0.015634 -0.003824 -0.002621 0.011859 0.016303 0.007432 -0.000728 -0.014513 0.006075 -0.004230 0.001744 -0.010296 -0.012062 -0.000096 -0.012280 -0.013207 0.006787 -0.002031 0.009101 0.007118 -0.006597 0.007372 -0.001566 0.014155
1569 0.001909 -0.011441 0.016944 0.009462 -0.014965 -0.000001 0.016209 0.000150 0.003474 -0.005115 0.014185 -0.016452 -0.002631 0.002081 0.009530 -0.005084 0.007676 0.010245 -0.006513 -0.015591 -0.006265 -0.006573 0.006262 0.003312 0.007244 0.015443 0.014813 0.014557 0.011100
1691 0.009211 0.013107 0.010739 -0.011412 -0.016005 0.000305 -0.005916 -0.008336 0.008925 -0.010524 -0.007216 -0.004712 0.007988 -0.006578 0.013122 0.000274 -0.000935 0.015625 0.011204 0.008412 0.014666 0.013474 -0.001426 0.010438 -0.013503 -0.015847 -0.012746 0.012453 0.010192
1064 0.006491 0.000745 -0.016782 -0.014567 0.007255 -0.010874 -0.012322 0.010728 0.002657 0.010952 -0.016625 -0.006733 0.008580 -0.008822 0.009324 -0.004800 -0.002896 0.016004 0.012333 -0.016166 0.012776 0.009865 0.004241 -0.001739 -0.007069 -0.007805 0.004197 0.006388 0.004847
1438 -0.009125 0.010410 0.015004 -0.009358 0.012008 0.009367 -0.005649 0.011445 0.000103 0.014114 0.016933 0.003887 -0.011977 -0.007155 -0.009227 -0.008658 -0.002918 0.010537 0.006323 -0.006599 -0.015036 0.011792 -0.016453 0.012034 0.006620 -0.013934 -0.005439 0.009616 0.003204
2072 0.002099 -0.012116 0.001468 -0.005045 -0.016428 0.001064 -0.006187 -0.008192 0.007326 0.005792 -0.003205 0.016774 -0.007422 0.006046 0.012947 -0.000545 -0.007483 -0.004162 0.009527 -0.010853 -0.004993 -0.011270 0.005795 0.008648 0.003077 0.003549 -0.001967 0.010134 0.015299
1387 0.001758 0.013573 0.009629 -0.004704 0.000585 0.012821 -0.009810 -0.005476 -0.001361 0.010231 0.006519 -0.000125 0.001691 -0.012652 0.002645 -0.013862 -0.016423 -0.008630 0.013773 0.002444 -0.004989 0.003901 0.014592 -0.008478 -0.010743 0.002290 0.009920 0.016625 -0.001058
1300 -0.007873 -0.015223 -0.008929 0.012140 0.012422 -0.010871 0.013201 0.014631 0.017179 0.005166 0.006963 0.003920 -0.008338 -0.006883 0.008580 -0.012051 0.010745 -0.003518 -0.012249 -0.009731 0.016433 0.012297 0.008821 0.002638 0.007033 0.014131 -0.006250 -0.008815 0.002413
1969 -0.006763 0.006488 -0.002218 -0.004331 0.012759 -0.011969 0.006471 -0.009319 -0.008622 0.013304 0.016052 -0.012348 -0.010753 0.008851 -0.009730 -0.007935 -0.013924 0.000751 0.012469 -0.006472 -0.011898 0.011661 0.004619 0.010752 -0.011855 -0.002912 -0.001111 -0.001908 0.013260
1008 0.016290 -0.015897 -0.011134 -0.000027 0.004247 0.013760 0.002931 0.017045 0.007793 -0.007872 -0.007645 -0.016664 -0.005350 0.003321 -0.005768 0.015583 0.011053 -0.005096 0.001797 0.003289 0.007207 0.015849 -0.005769 0.011536 0.005877 -0.002802 -0.006412 -0.002901 0.010027
1501 0.002262 -0.004310 0.011380 -0.016657 -0.005623 0.013793 -0.009327 -0.013030 -0.001670 0.014599 -0.015365 -0.005933 -0.015054 0.000989 0.007411 -0.000172 0.008712 0.009377 0.013083 0.017053 0.011013 -0.003946 -0.000408 0.008900 -0.015153 -0.001013 0.001192 0.009169 0.011415
1524 0.014905 -0.016706 0.013798 0.010632 -0.008701 -0.003518 0.016286 -0.013934 -0.017226 0.000837 0.013089 0.016308 -0.014186 0.008117 -0.000583 0.011673 0.013123 -0.006811 0.000192 -0.012703 0.012126 -0.004861 -0.016114 0.004176 -0.016120 -0.011858 0.008012 -0.011550 -0.010095
1236 -0.012697 -0.009366 -0.004579 -0.006655 -0.007298 0.001141 0.016902 0.001620 0.007801 -0.003413 -0.005998 -0.005944 0.016668 0.005512 0.004935 0.002458 -0.008039 -0.008140 -0.002189 -0.015489 -0.008945 0.009528 -0.015930 0.006567 -0.008935 -0.008817 0.010721 -0.010827 -0.014495
1646 -0.000855 -0.010768 0.014413 0.007152 -0.016861 0.009079 0.008201 0.002319 0.002101 -0.004470 0.010646 0.007667 -0.003988 0.005584 -0.004328 0.016647 -0.008752 0.013030 0.005826 0.010582 0.000269 0.009180 0.006274 -0.002782 -0.013902 -0.011500 0.005998 0.015549 0.004373
2031 0.000188 0.012542 -0.004980 -0.003826 -0.002160 0.016966 0.008899 0.005970 -0.011094 -0.009293 0.004687 -0.000426 -0.010155 -0.011531 0.011480 -0.013181 0.010058 -0.015939 -0.006079 0.008378 0.012300 -0.006266 -0.013455 -0.010419 0.008581 -0.005592 0.000354 0.007682 0.004221
1483 0.000794 0.000362 -0.009566 0.014012 -0.005729 0.002919 0.009699 -0.006139 0.000475 0.004421 -0.003646 -0.011228 0.001589 0.013041 0.007624 -0.015052 0.004899 0.015764 0.007863 0.003987 -0.004478 0.012809 -0.013424 0.013284 0.004642 -0.014891 -0.011273 -0.003582 0.014356
1484 -0.004858 0.006057 0.002282 0.005483 -0.005698 0.006116 -0.007508 -0.000050 0.006548 0.008763 -0.010655 -0.004019 0.007147 -0.001534 0.007625 0.006140 0.003027 0.009023 0.000414 -0.011714 0.001562 -0.010564 0.001152 -0.014037 0.006758 0.009322 0.016590 0.009291 0.009617
1029 0.007727 0.002614 -0.001530 -0.008373 -0.000455 0.007878 -0.010796 0.012676 -0.005317 0.010997 -0.001382 -0.001776 0.015035 -0.015324 -0.009289 0.013101 0.015924 -0.004233 0.000345 -0.001786 0.012624 0.001633 -0.016980 -0.017185 -0.015414 -0.004794 0.003918 -0.001831 0.005169
1522 0.007579 -0.004505 -0.003355 -0.016096 0.000546 -0.012177 0.008648 0.001649 -0.005981 -0.008120 -0.003809 -0.002078 0.015545 0.003232 -0.015999 0.010828 0.006149 -0.000793 -0.015033 -0.002740 -0.016112 -0.009656 -0.014368 0.009854 0.010797 -0.015279 0.014935 0.014928 -0.007018
1775 0.002714 -0.013687 0.004472 0.003938 -0.016820 -0.010655 0.005873 0.005485 -0.010694 0.006139 -0.011200 0.004951 -0.007611 0.007796 0.003908 0.007825 0.001179 -0.014440 0.003857 0.009415 -0.000574 -0.000491 0.003904 -0.004446 0.006962 -0.001713 0.007907 0.011619 0.016980
1286 0.000863 -0.006504 -0.004681 -0.000386 0.008003 0.015652 0.016279 0.005226 0.000269 0.004766 0.013782 0.010432 0.002363 0.011931 0.013938 -0.006558 -0.008960 -0.008372 -0.006842 0.010168 -0.001530 -0.013777 -0.016540 0.004933 0.010031 0.011504 -0.005513 0.011111 -0.007768
1255 -0.011474 -0.000048 0.006541 0.000974 -0.007992 -0.016489 0.001191 0.012280 -0.007715 -0.011659 -0.005211 0.002849 0.003910 -0.004878 -0.011178 -0.010225 0.003751 0.006986 0.013136 0.004614 -0.011621 0.009894 0.010850 -0.012464 0.003061 -0.004747 0.007847 0.008637 0.014390
1146 0.002289 0.001367 0.003456 -0.004192 0.016696 -0.002806 -0.009751 0.002636 0.017040 -0.008255 -0.002062 0.012748 0.008683 0.013246 -0.016081 -0.004881 0.009319 0.009096 0.001221 0.011453 0.017015 -0.017003 -0.005011 0.003940 0.017010 0.007765 0.002505 -0.007285 -0.015325
1366 0.010679 -0.009043 0.015705 0.001182 -0.012919 -0.015054 -0.001316 0.004324 0.016199 -0.004378 -0.002501 0.001629 0.010762 -0.005414 -0.006899 0.001795 0.008006 0.007273 -0.005810 -0.016579 0.010674 -0.016887 0.001108 -0.012764 0.001751 -0.011825 -0.012829 -0.010046 -0.016356
1323 0.015010 0.011117 0.009763 -0.010450 -0.001016 0.002222 -0.007149 -0.012698 -0.015229 0.009705 -0.000453 -0.009156 -0.013606 -0.003998 0.012724 0.016903 -0.015312 0.008383 -0.010263 0.007646 -0.005769 -0.014056 -0.008258 -0.006319 -0.004532 0.014661 -0.014692 -0.013075 -0.000763
1591 -0.009267 0.005025 -0.011373 0.007197 -0.011255 -0.016408 0.006450 0.012896 -0.016733 -0.017159 0.001734 0.008256 0.010746 -0.000521 -0.011939 -0.008697 -0.011077 0.010763 0.016494 0.016992 -0.014643 -0.003482 0.008789 -0.006656 0.016660 -0.015627 0.007246 -0.007994 -0.013870
1148 0.004422 -0.004495 0.001960 0.003133 -0.005885 -0.014426 0.005894 0.005834 0.004376 -0.016957 -0.004725 -0.013753 0.013648 -0.011346 -0.007495 0.005600 -0.007049 0.009029 -0.013651 0.016943 -0.009546 -0.003728 0.009549 0.009624 -0.004736 -0.012820 0.010942 0.006657 -0.009687
2107 -0.011520 -0.012491 0.000696 0.003840 0.000644 0.013308 0.000675 0.004099 -0.014139 -0.008039 0.008343 0.011233 0.005673 0.002133 -0.011972 0.000735 -0.002733 0.007810 0.007148 -0.006392 0.004387 -0.004277 0.015129 0.007204 0.009726 -0.015140 0.001562 -0.016356 0.014596
1261 0.002321 0.016674 0.003861 -0.001242 -0.013706 -0.008372 -0.005671 0.013980 0.000516 -0.001505 -0.013727 0.013801 -0.013518 0.006368 -0.000220 -0.009418 0.011691 0.005448 -0.003985 -0.000550 -0.001353 0.016036 0.008338 0.001696 -0.008422 -0.011581 0.010904 0.002960 0.011366
1015 -0.002107 0.008105 -0.001932 0.006637 0.003628 -0.003987 -0.011274 -0.012787 0.009708 -0.016425 0.009747 -0.003988 0.015238 -0.003358 -0.003164 0.002169 -0.008481 -0.013753 0.014992 0.016245 -0.002666 0.001437 -0.009770 -0.002307 -0.008167 -0.003811 -0.000729 0.000633 0.014766
2000 0.008498 -0.004036 -0.004823 -0.004977 -0.001227 0.008258 -0.006342 -0.006696 -0.009905 0.008052 -0.001195 -0.006545 0.013205 -0.006814 -0.014382 0.013954 0.002710 0.013262 0.012479 -0.007532 -0.012750 -0.004895 -0.002477 0.007955 -0.016829 0.013235 -0.010310 -0.003166 -0.012195
